=== Run information ===

Scheme:       weka.classifiers.trees.RandomTree -K 0 -M 1.0 -V 0.001 -S 1
Relation:     srv
Instances:    111059
Attributes:   8
              SEX
              AGEGRP
              REGION
              Category
              refill_count
              ADMTYP
              EGEOLOC
              class
Test mode:    10-fold cross-validation

=== Classifier model (full training set) ===


RandomTree
==========

refill_count < 10.5
|   SEX < 1.5
|   |   refill_count < 1.5
|   |   |   Category = inpatients
|   |   |   |   ADMTYP < 2.5
|   |   |   |   |   AGEGRP < 1.5
|   |   |   |   |   |   REGION < 2.5
|   |   |   |   |   |   |   EGEOLOC < 11.5 : butrans (4/0)
|   |   |   |   |   |   |   EGEOLOC >= 11.5
|   |   |   |   |   |   |   |   ADMTYP < 1.5
|   |   |   |   |   |   |   |   |   REGION < 1.5 : opana (1/0)
|   |   |   |   |   |   |   |   |   REGION >= 1.5 : butrans (1/0)
|   |   |   |   |   |   |   |   ADMTYP >= 1.5 : opana (4/0)
|   |   |   |   |   |   REGION >= 2.5
|   |   |   |   |   |   |   EGEOLOC < 42.5 : opana (1/0)
|   |   |   |   |   |   |   EGEOLOC >= 42.5 : butrans (16/0)
|   |   |   |   |   AGEGRP >= 1.5
|   |   |   |   |   |   AGEGRP < 3.5
|   |   |   |   |   |   |   EGEOLOC < 46.5
|   |   |   |   |   |   |   |   REGION < 2.5
|   |   |   |   |   |   |   |   |   EGEOLOC < 6.5
|   |   |   |   |   |   |   |   |   |   EGEOLOC < 2.5 : butrans (1/0)
|   |   |   |   |   |   |   |   |   |   EGEOLOC >= 2.5
|   |   |   |   |   |   |   |   |   |   |   AGEGRP < 2.5
|   |   |   |   |   |   |   |   |   |   |   |   ADMTYP < 1.5 : opana (10/5)
|   |   |   |   |   |   |   |   |   |   |   |   ADMTYP >= 1.5
|   |   |   |   |   |   |   |   |   |   |   |   |   EGEOLOC < 5 : butrans (13/6)
|   |   |   |   |   |   |   |   |   |   |   |   |   EGEOLOC >= 5 : butrans (10/0)
|   |   |   |   |   |   |   |   |   |   |   AGEGRP >= 2.5
|   |   |   |   |   |   |   |   |   |   |   |   ADMTYP < 1.5
|   |   |   |   |   |   |   |   |   |   |   |   |   EGEOLOC < 5.5 : butrans (8/0)
|   |   |   |   |   |   |   |   |   |   |   |   |   EGEOLOC >= 5.5 : opana (4/1)
|   |   |   |   |   |   |   |   |   |   |   |   ADMTYP >= 1.5
|   |   |   |   |   |   |   |   |   |   |   |   |   EGEOLOC < 4.5 : butrans (9/1)
|   |   |   |   |   |   |   |   |   |   |   |   |   EGEOLOC >= 4.5
|   |   |   |   |   |   |   |   |   |   |   |   |   |   EGEOLOC < 5.5 : butrans (6/2)
|   |   |   |   |   |   |   |   |   |   |   |   |   |   EGEOLOC >= 5.5 : opana (4/2)
|   |   |   |   |   |   |   |   |   EGEOLOC >= 6.5
|   |   |   |   |   |   |   |   |   |   EGEOLOC < 25.5
|   |   |   |   |   |   |   |   |   |   |   AGEGRP < 2.5
|   |   |   |   |   |   |   |   |   |   |   |   EGEOLOC < 16.5
|   |   |   |   |   |   |   |   |   |   |   |   |   REGION < 1.5
|   |   |   |   |   |   |   |   |   |   |   |   |   |   EGEOLOC < 9
|   |   |   |   |   |   |   |   |   |   |   |   |   |   |   ADMTYP < 1.5 : butrans (1/0)
|   |   |   |   |   |   |   |   |   |   |   |   |   |   |   ADMTYP >= 1.5 : opana (9/0)
|   |   |   |   |   |   |   |   |   |   |   |   |   |   EGEOLOC >= 9
|   |   |   |   |   |   |   |   |   |   |   |   |   |   |   ADMTYP < 1.5
|   |   |   |   |   |   |   |   |   |   |   |   |   |   |   |   EGEOLOC < 11.5 : opana (12/6)
|   |   |   |   |   |   |   |   |   |   |   |   |   |   |   |   EGEOLOC >= 11.5
|   |   |   |   |   |   |   |   |   |   |   |   |   |   |   |   |   EGEOLOC < 12.5 : opana (17.35/4.27)
|   |   |   |   |   |   |   |   |   |   |   |   |   |   |   |   |   EGEOLOC >= 12.5 : opana (23/8)
|   |   |   |   |   |   |   |   |   |   |   |   |   |   |   ADMTYP >= 1.5
|   |   |   |   |   |   |   |   |   |   |   |   |   |   |   |   EGEOLOC < 11.5 : opana (16/6)
|   |   |   |   |   |   |   |   |   |   |   |   |   |   |   |   EGEOLOC >= 11.5
|   |   |   |   |   |   |   |   |   |   |   |   |   |   |   |   |   EGEOLOC < 12.5 : opana (48.96/21.59)
|   |   |   |   |   |   |   |   |   |   |   |   |   |   |   |   |   EGEOLOC >= 12.5 : opana (50/20)
|   |   |   |   |   |   |   |   |   |   |   |   |   REGION >= 1.5
|   |   |   |   |   |   |   |   |   |   |   |   |   |   ADMTYP < 1.5 : opana (16/6)
|   |   |   |   |   |   |   |   |   |   |   |   |   |   ADMTYP >= 1.5 : opana (28/4)
|   |   |   |   |   |   |   |   |   |   |   |   EGEOLOC >= 16.5
|   |   |   |   |   |   |   |   |   |   |   |   |   EGEOLOC < 18.5
|   |   |   |   |   |   |   |   |   |   |   |   |   |   ADMTYP < 1.5
|   |   |   |   |   |   |   |   |   |   |   |   |   |   |   EGEOLOC < 17.5 : butrans (10/4)
|   |   |   |   |   |   |   |   |   |   |   |   |   |   |   EGEOLOC >= 17.5 : opana (16/5)
|   |   |   |   |   |   |   |   |   |   |   |   |   |   ADMTYP >= 1.5
|   |   |   |   |   |   |   |   |   |   |   |   |   |   |   EGEOLOC < 17.5 : butrans (20/7)
|   |   |   |   |   |   |   |   |   |   |   |   |   |   |   EGEOLOC >= 17.5 : butrans (59/24)
|   |   |   |   |   |   |   |   |   |   |   |   |   EGEOLOC >= 18.5
|   |   |   |   |   |   |   |   |   |   |   |   |   |   ADMTYP < 1.5
|   |   |   |   |   |   |   |   |   |   |   |   |   |   |   EGEOLOC < 23.5
|   |   |   |   |   |   |   |   |   |   |   |   |   |   |   |   EGEOLOC < 19.5 : opana (17/7)
|   |   |   |   |   |   |   |   |   |   |   |   |   |   |   |   EGEOLOC >= 19.5 : opana (2/0)
|   |   |   |   |   |   |   |   |   |   |   |   |   |   |   EGEOLOC >= 23.5 : butrans (10/4)
|   |   |   |   |   |   |   |   |   |   |   |   |   |   ADMTYP >= 1.5
|   |   |   |   |   |   |   |   |   |   |   |   |   |   |   EGEOLOC < 24
|   |   |   |   |   |   |   |   |   |   |   |   |   |   |   |   EGEOLOC < 21.5
|   |   |   |   |   |   |   |   |   |   |   |   |   |   |   |   |   EGEOLOC < 19.5 : opana (42/17)
|   |   |   |   |   |   |   |   |   |   |   |   |   |   |   |   |   EGEOLOC >= 19.5 : opana (6/3)
|   |   |   |   |   |   |   |   |   |   |   |   |   |   |   |   EGEOLOC >= 21.5 : opana (3/1)
|   |   |   |   |   |   |   |   |   |   |   |   |   |   |   EGEOLOC >= 24 : opana (18/4)
|   |   |   |   |   |   |   |   |   |   |   AGEGRP >= 2.5
|   |   |   |   |   |   |   |   |   |   |   |   REGION < 1.5
|   |   |   |   |   |   |   |   |   |   |   |   |   ADMTYP < 1.5
|   |   |   |   |   |   |   |   |   |   |   |   |   |   EGEOLOC < 12.5
|   |   |   |   |   |   |   |   |   |   |   |   |   |   |   EGEOLOC < 11.5
|   |   |   |   |   |   |   |   |   |   |   |   |   |   |   |   EGEOLOC < 9 : opana (4/1)
|   |   |   |   |   |   |   |   |   |   |   |   |   |   |   |   EGEOLOC >= 9 : opana (13/6)
|   |   |   |   |   |   |   |   |   |   |   |   |   |   |   EGEOLOC >= 11.5 : opana (43/11)
|   |   |   |   |   |   |   |   |   |   |   |   |   |   EGEOLOC >= 12.5 : opana (38/19)
|   |   |   |   |   |   |   |   |   |   |   |   |   ADMTYP >= 1.5
|   |   |   |   |   |   |   |   |   |   |   |   |   |   EGEOLOC < 12.5
|   |   |   |   |   |   |   |   |   |   |   |   |   |   |   EGEOLOC < 11.5
|   |   |   |   |   |   |   |   |   |   |   |   |   |   |   |   EGEOLOC < 9 : opana (2/1)
|   |   |   |   |   |   |   |   |   |   |   |   |   |   |   |   EGEOLOC >= 9 : opana (19/4)
|   |   |   |   |   |   |   |   |   |   |   |   |   |   |   EGEOLOC >= 11.5 : opana (58/18)
|   |   |   |   |   |   |   |   |   |   |   |   |   |   EGEOLOC >= 12.5 : butrans (54/26)
|   |   |   |   |   |   |   |   |   |   |   |   REGION >= 1.5
|   |   |   |   |   |   |   |   |   |   |   |   |   EGEOLOC < 19.5
|   |   |   |   |   |   |   |   |   |   |   |   |   |   ADMTYP < 1.5
|   |   |   |   |   |   |   |   |   |   |   |   |   |   |   EGEOLOC < 17.5
|   |   |   |   |   |   |   |   |   |   |   |   |   |   |   |   EGEOLOC < 16.5 : opana (29.38/10)
|   |   |   |   |   |   |   |   |   |   |   |   |   |   |   |   EGEOLOC >= 16.5 : opana (34.38/11)
|   |   |   |   |   |   |   |   |   |   |   |   |   |   |   EGEOLOC >= 17.5
|   |   |   |   |   |   |   |   |   |   |   |   |   |   |   |   EGEOLOC < 18.5 : opana (30/7)
|   |   |   |   |   |   |   |   |   |   |   |   |   |   |   |   EGEOLOC >= 18.5 : opana (65/20)
|   |   |   |   |   |   |   |   |   |   |   |   |   |   ADMTYP >= 1.5
|   |   |   |   |   |   |   |   |   |   |   |   |   |   |   EGEOLOC < 18.5
|   |   |   |   |   |   |   |   |   |   |   |   |   |   |   |   EGEOLOC < 17.5
|   |   |   |   |   |   |   |   |   |   |   |   |   |   |   |   |   EGEOLOC < 16.5 : opana (32.48/12)
|   |   |   |   |   |   |   |   |   |   |   |   |   |   |   |   |   EGEOLOC >= 16.5 : opana (44.48/17)
|   |   |   |   |   |   |   |   |   |   |   |   |   |   |   |   EGEOLOC >= 17.5 : opana (21/10)
|   |   |   |   |   |   |   |   |   |   |   |   |   |   |   EGEOLOC >= 18.5 : opana (99/24)
|   |   |   |   |   |   |   |   |   |   |   |   |   EGEOLOC >= 19.5
|   |   |   |   |   |   |   |   |   |   |   |   |   |   ADMTYP < 1.5
|   |   |   |   |   |   |   |   |   |   |   |   |   |   |   EGEOLOC < 21 : butrans (8/3)
|   |   |   |   |   |   |   |   |   |   |   |   |   |   |   EGEOLOC >= 21
|   |   |   |   |   |   |   |   |   |   |   |   |   |   |   |   EGEOLOC < 23.5 : opana (4/0)
|   |   |   |   |   |   |   |   |   |   |   |   |   |   |   |   EGEOLOC >= 23.5
|   |   |   |   |   |   |   |   |   |   |   |   |   |   |   |   |   EGEOLOC < 24.5 : butrans (1/0)
|   |   |   |   |   |   |   |   |   |   |   |   |   |   |   |   |   EGEOLOC >= 24.5 : opana (11/5)
|   |   |   |   |   |   |   |   |   |   |   |   |   |   ADMTYP >= 1.5
|   |   |   |   |   |   |   |   |   |   |   |   |   |   |   EGEOLOC < 24 : opana (1/0)
|   |   |   |   |   |   |   |   |   |   |   |   |   |   |   EGEOLOC >= 24 : opana (17/6)
|   |   |   |   |   |   |   |   |   |   EGEOLOC >= 25.5
|   |   |   |   |   |   |   |   |   |   |   REGION < 1.5
|   |   |   |   |   |   |   |   |   |   |   |   EGEOLOC < 33.5 : opana (2/0)
|   |   |   |   |   |   |   |   |   |   |   |   EGEOLOC >= 33.5 : butrans (1/0)
|   |   |   |   |   |   |   |   |   |   |   REGION >= 1.5
|   |   |   |   |   |   |   |   |   |   |   |   EGEOLOC < 27
|   |   |   |   |   |   |   |   |   |   |   |   |   ADMTYP < 1.5 : butrans (3/1)
|   |   |   |   |   |   |   |   |   |   |   |   |   ADMTYP >= 1.5
|   |   |   |   |   |   |   |   |   |   |   |   |   |   AGEGRP < 2.5 : butrans (6/0)
|   |   |   |   |   |   |   |   |   |   |   |   |   |   AGEGRP >= 2.5 : butrans (11/1)
|   |   |   |   |   |   |   |   |   |   |   |   EGEOLOC >= 27 : butrans (4/0)
|   |   |   |   |   |   |   |   REGION >= 2.5
|   |   |   |   |   |   |   |   |   AGEGRP < 2.5
|   |   |   |   |   |   |   |   |   |   REGION < 4.5
|   |   |   |   |   |   |   |   |   |   |   EGEOLOC < 40
|   |   |   |   |   |   |   |   |   |   |   |   EGEOLOC < 38.5
|   |   |   |   |   |   |   |   |   |   |   |   |   ADMTYP < 1.5
|   |   |   |   |   |   |   |   |   |   |   |   |   |   EGEOLOC < 35.5
|   |   |   |   |   |   |   |   |   |   |   |   |   |   |   EGEOLOC < 33.5
|   |   |   |   |   |   |   |   |   |   |   |   |   |   |   |   EGEOLOC < 32.5 : opana (1/0)
|   |   |   |   |   |   |   |   |   |   |   |   |   |   |   |   EGEOLOC >= 32.5 : opana (23/7)
|   |   |   |   |   |   |   |   |   |   |   |   |   |   |   EGEOLOC >= 33.5
|   |   |   |   |   |   |   |   |   |   |   |   |   |   |   |   EGEOLOC < 34.5 : butrans (34/13)
|   |   |   |   |   |   |   |   |   |   |   |   |   |   |   |   EGEOLOC >= 34.5 : opana (2/1)
|   |   |   |   |   |   |   |   |   |   |   |   |   |   EGEOLOC >= 35.5
|   |   |   |   |   |   |   |   |   |   |   |   |   |   |   EGEOLOC < 36.5 : opana (9/0)
|   |   |   |   |   |   |   |   |   |   |   |   |   |   |   EGEOLOC >= 36.5
|   |   |   |   |   |   |   |   |   |   |   |   |   |   |   |   EGEOLOC < 37.5 : opana (30/10)
|   |   |   |   |   |   |   |   |   |   |   |   |   |   |   |   EGEOLOC >= 37.5 : butrans (5/2)
|   |   |   |   |   |   |   |   |   |   |   |   |   ADMTYP >= 1.5
|   |   |   |   |   |   |   |   |   |   |   |   |   |   EGEOLOC < 33.5
|   |   |   |   |   |   |   |   |   |   |   |   |   |   |   REGION < 3.5
|   |   |   |   |   |   |   |   |   |   |   |   |   |   |   |   EGEOLOC < 32.5
|   |   |   |   |   |   |   |   |   |   |   |   |   |   |   |   |   EGEOLOC < 22.5 : opana (1/0)
|   |   |   |   |   |   |   |   |   |   |   |   |   |   |   |   |   EGEOLOC >= 22.5 : opana (2/1)
|   |   |   |   |   |   |   |   |   |   |   |   |   |   |   |   EGEOLOC >= 32.5 : opana (47/2)
|   |   |   |   |   |   |   |   |   |   |   |   |   |   |   REGION >= 3.5 : butrans (3/0)
|   |   |   |   |   |   |   |   |   |   |   |   |   |   EGEOLOC >= 33.5
|   |   |   |   |   |   |   |   |   |   |   |   |   |   |   REGION < 3.5
|   |   |   |   |   |   |   |   |   |   |   |   |   |   |   |   EGEOLOC < 34.5 : butrans (38/11)
|   |   |   |   |   |   |   |   |   |   |   |   |   |   |   |   EGEOLOC >= 34.5
|   |   |   |   |   |   |   |   |   |   |   |   |   |   |   |   |   EGEOLOC < 36.5
|   |   |   |   |   |   |   |   |   |   |   |   |   |   |   |   |   |   EGEOLOC < 35.5 : opana (11/2)
|   |   |   |   |   |   |   |   |   |   |   |   |   |   |   |   |   |   EGEOLOC >= 35.5 : opana (29/5)
|   |   |   |   |   |   |   |   |   |   |   |   |   |   |   |   |   EGEOLOC >= 36.5
|   |   |   |   |   |   |   |   |   |   |   |   |   |   |   |   |   |   EGEOLOC < 37.5 : opana (27/8)
|   |   |   |   |   |   |   |   |   |   |   |   |   |   |   |   |   |   EGEOLOC >= 37.5 : opana (2/1)
|   |   |   |   |   |   |   |   |   |   |   |   |   |   |   REGION >= 3.5 : opana (1/0)
|   |   |   |   |   |   |   |   |   |   |   |   EGEOLOC >= 38.5 : opana (29/0)
|   |   |   |   |   |   |   |   |   |   |   EGEOLOC >= 40
|   |   |   |   |   |   |   |   |   |   |   |   EGEOLOC < 45
|   |   |   |   |   |   |   |   |   |   |   |   |   ADMTYP < 1.5
|   |   |   |   |   |   |   |   |   |   |   |   |   |   EGEOLOC < 41.5 : opana (12/5)
|   |   |   |   |   |   |   |   |   |   |   |   |   |   EGEOLOC >= 41.5
|   |   |   |   |   |   |   |   |   |   |   |   |   |   |   EGEOLOC < 42.5 : butrans (3/1)
|   |   |   |   |   |   |   |   |   |   |   |   |   |   |   EGEOLOC >= 42.5
|   |   |   |   |   |   |   |   |   |   |   |   |   |   |   |   EGEOLOC < 43.5 : butrans (13/6)
|   |   |   |   |   |   |   |   |   |   |   |   |   |   |   |   EGEOLOC >= 43.5 : butrans (23/10)
|   |   |   |   |   |   |   |   |   |   |   |   |   ADMTYP >= 1.5
|   |   |   |   |   |   |   |   |   |   |   |   |   |   EGEOLOC < 42.5
|   |   |   |   |   |   |   |   |   |   |   |   |   |   |   EGEOLOC < 41.5 : butrans (8/3)
|   |   |   |   |   |   |   |   |   |   |   |   |   |   |   EGEOLOC >= 41.5 : butrans (12/1)
|   |   |   |   |   |   |   |   |   |   |   |   |   |   EGEOLOC >= 42.5
|   |   |   |   |   |   |   |   |   |   |   |   |   |   |   EGEOLOC < 43.5 : butrans (27/11)
|   |   |   |   |   |   |   |   |   |   |   |   |   |   |   EGEOLOC >= 43.5 : butrans (38/10)
|   |   |   |   |   |   |   |   |   |   |   |   EGEOLOC >= 45 : opana (1/0)
|   |   |   |   |   |   |   |   |   |   REGION >= 4.5
|   |   |   |   |   |   |   |   |   |   |   ADMTYP < 1.5 : opana (12/0)
|   |   |   |   |   |   |   |   |   |   |   ADMTYP >= 1.5 : opana (10/1)
|   |   |   |   |   |   |   |   |   AGEGRP >= 2.5
|   |   |   |   |   |   |   |   |   |   EGEOLOC < 38.5
|   |   |   |   |   |   |   |   |   |   |   EGEOLOC < 32.5
|   |   |   |   |   |   |   |   |   |   |   |   EGEOLOC < 4.5
|   |   |   |   |   |   |   |   |   |   |   |   |   EGEOLOC < 2.5
|   |   |   |   |   |   |   |   |   |   |   |   |   |   REGION < 4.5 : opana (3/0)
|   |   |   |   |   |   |   |   |   |   |   |   |   |   REGION >= 4.5
|   |   |   |   |   |   |   |   |   |   |   |   |   |   |   ADMTYP < 1.5 : butrans (13/3)
|   |   |   |   |   |   |   |   |   |   |   |   |   |   |   ADMTYP >= 1.5 : butrans (16/5)
|   |   |   |   |   |   |   |   |   |   |   |   |   EGEOLOC >= 2.5 : opana (9/0)
|   |   |   |   |   |   |   |   |   |   |   |   EGEOLOC >= 4.5
|   |   |   |   |   |   |   |   |   |   |   |   |   ADMTYP < 1.5
|   |   |   |   |   |   |   |   |   |   |   |   |   |   EGEOLOC < 22.5 : butrans (1/0)
|   |   |   |   |   |   |   |   |   |   |   |   |   |   EGEOLOC >= 22.5 : opana (2/1)
|   |   |   |   |   |   |   |   |   |   |   |   |   ADMTYP >= 1.5
|   |   |   |   |   |   |   |   |   |   |   |   |   |   EGEOLOC < 18 : butrans (6/0)
|   |   |   |   |   |   |   |   |   |   |   |   |   |   EGEOLOC >= 18
|   |   |   |   |   |   |   |   |   |   |   |   |   |   |   EGEOLOC < 25.5
|   |   |   |   |   |   |   |   |   |   |   |   |   |   |   |   REGION < 4 : butrans (1/0)
|   |   |   |   |   |   |   |   |   |   |   |   |   |   |   |   REGION >= 4 : butrans (3/1)
|   |   |   |   |   |   |   |   |   |   |   |   |   |   |   EGEOLOC >= 25.5 : butrans (1/0)
|   |   |   |   |   |   |   |   |   |   |   EGEOLOC >= 32.5
|   |   |   |   |   |   |   |   |   |   |   |   EGEOLOC < 36.5
|   |   |   |   |   |   |   |   |   |   |   |   |   EGEOLOC < 34.5
|   |   |   |   |   |   |   |   |   |   |   |   |   |   EGEOLOC < 33.5
|   |   |   |   |   |   |   |   |   |   |   |   |   |   |   ADMTYP < 1.5 : opana (60/18)
|   |   |   |   |   |   |   |   |   |   |   |   |   |   |   ADMTYP >= 1.5 : opana (37/10)
|   |   |   |   |   |   |   |   |   |   |   |   |   |   EGEOLOC >= 33.5
|   |   |   |   |   |   |   |   |   |   |   |   |   |   |   ADMTYP < 1.5 : opana (55.21/24)
|   |   |   |   |   |   |   |   |   |   |   |   |   |   |   ADMTYP >= 1.5 : opana (52.09/21)
|   |   |   |   |   |   |   |   |   |   |   |   |   EGEOLOC >= 34.5
|   |   |   |   |   |   |   |   |   |   |   |   |   |   EGEOLOC < 35.5
|   |   |   |   |   |   |   |   |   |   |   |   |   |   |   ADMTYP < 1.5 : opana (6/1)
|   |   |   |   |   |   |   |   |   |   |   |   |   |   |   ADMTYP >= 1.5 : opana (1/0)
|   |   |   |   |   |   |   |   |   |   |   |   |   |   EGEOLOC >= 35.5
|   |   |   |   |   |   |   |   |   |   |   |   |   |   |   REGION < 4
|   |   |   |   |   |   |   |   |   |   |   |   |   |   |   |   ADMTYP < 1.5 : opana (28/8)
|   |   |   |   |   |   |   |   |   |   |   |   |   |   |   |   ADMTYP >= 1.5 : opana (24/6)
|   |   |   |   |   |   |   |   |   |   |   |   |   |   |   REGION >= 4 : opana (3/0)
|   |   |   |   |   |   |   |   |   |   |   |   EGEOLOC >= 36.5
|   |   |   |   |   |   |   |   |   |   |   |   |   ADMTYP < 1.5
|   |   |   |   |   |   |   |   |   |   |   |   |   |   EGEOLOC < 37.5 : butrans (44/21)
|   |   |   |   |   |   |   |   |   |   |   |   |   |   EGEOLOC >= 37.5
|   |   |   |   |   |   |   |   |   |   |   |   |   |   |   REGION < 4 : opana (14/4)
|   |   |   |   |   |   |   |   |   |   |   |   |   |   |   REGION >= 4 : opana (3/0)
|   |   |   |   |   |   |   |   |   |   |   |   |   ADMTYP >= 1.5
|   |   |   |   |   |   |   |   |   |   |   |   |   |   EGEOLOC < 37.5 : opana (30/12)
|   |   |   |   |   |   |   |   |   |   |   |   |   |   EGEOLOC >= 37.5
|   |   |   |   |   |   |   |   |   |   |   |   |   |   |   REGION < 4 : butrans (22/8)
|   |   |   |   |   |   |   |   |   |   |   |   |   |   |   REGION >= 4 : opana (1/0)
|   |   |   |   |   |   |   |   |   |   EGEOLOC >= 38.5
|   |   |   |   |   |   |   |   |   |   |   EGEOLOC < 43.5
|   |   |   |   |   |   |   |   |   |   |   |   EGEOLOC < 42.5
|   |   |   |   |   |   |   |   |   |   |   |   |   ADMTYP < 1.5
|   |   |   |   |   |   |   |   |   |   |   |   |   |   EGEOLOC < 41.5
|   |   |   |   |   |   |   |   |   |   |   |   |   |   |   EGEOLOC < 40 : opana (6/1)
|   |   |   |   |   |   |   |   |   |   |   |   |   |   |   EGEOLOC >= 40 : opana (19/9)
|   |   |   |   |   |   |   |   |   |   |   |   |   |   EGEOLOC >= 41.5 : opana (13/3)
|   |   |   |   |   |   |   |   |   |   |   |   |   ADMTYP >= 1.5
|   |   |   |   |   |   |   |   |   |   |   |   |   |   EGEOLOC < 41.5
|   |   |   |   |   |   |   |   |   |   |   |   |   |   |   EGEOLOC < 40 : opana (13/3)
|   |   |   |   |   |   |   |   |   |   |   |   |   |   |   EGEOLOC >= 40 : opana (53/7)
|   |   |   |   |   |   |   |   |   |   |   |   |   |   EGEOLOC >= 41.5 : opana (35/9)
|   |   |   |   |   |   |   |   |   |   |   |   EGEOLOC >= 42.5
|   |   |   |   |   |   |   |   |   |   |   |   |   ADMTYP < 1.5 : opana (10/1)
|   |   |   |   |   |   |   |   |   |   |   |   |   ADMTYP >= 1.5 : butrans (10/4)
|   |   |   |   |   |   |   |   |   |   |   EGEOLOC >= 43.5
|   |   |   |   |   |   |   |   |   |   |   |   ADMTYP < 1.5
|   |   |   |   |   |   |   |   |   |   |   |   |   EGEOLOC < 45 : opana (24/5)
|   |   |   |   |   |   |   |   |   |   |   |   |   EGEOLOC >= 45 : opana (5/1)
|   |   |   |   |   |   |   |   |   |   |   |   ADMTYP >= 1.5
|   |   |   |   |   |   |   |   |   |   |   |   |   EGEOLOC < 45 : opana (90/12)
|   |   |   |   |   |   |   |   |   |   |   |   |   EGEOLOC >= 45 : opana (14/2)
|   |   |   |   |   |   |   EGEOLOC >= 46.5
|   |   |   |   |   |   |   |   EGEOLOC < 50.5
|   |   |   |   |   |   |   |   |   REGION < 4
|   |   |   |   |   |   |   |   |   |   REGION < 2.5 : opana (1/0)
|   |   |   |   |   |   |   |   |   |   REGION >= 2.5
|   |   |   |   |   |   |   |   |   |   |   EGEOLOC < 47.5
|   |   |   |   |   |   |   |   |   |   |   |   ADMTYP < 1.5
|   |   |   |   |   |   |   |   |   |   |   |   |   AGEGRP < 2.5 : butrans (9/3)
|   |   |   |   |   |   |   |   |   |   |   |   |   AGEGRP >= 2.5 : butrans (30/14)
|   |   |   |   |   |   |   |   |   |   |   |   ADMTYP >= 1.5
|   |   |   |   |   |   |   |   |   |   |   |   |   AGEGRP < 2.5 : butrans (20/9)
|   |   |   |   |   |   |   |   |   |   |   |   |   AGEGRP >= 2.5 : butrans (40/10)
|   |   |   |   |   |   |   |   |   |   |   EGEOLOC >= 47.5
|   |   |   |   |   |   |   |   |   |   |   |   EGEOLOC < 48.5
|   |   |   |   |   |   |   |   |   |   |   |   |   ADMTYP < 1.5
|   |   |   |   |   |   |   |   |   |   |   |   |   |   AGEGRP < 2.5 : butrans (10/3)
|   |   |   |   |   |   |   |   |   |   |   |   |   |   AGEGRP >= 2.5 : opana (12/5)
|   |   |   |   |   |   |   |   |   |   |   |   |   ADMTYP >= 1.5
|   |   |   |   |   |   |   |   |   |   |   |   |   |   AGEGRP < 2.5 : opana (10/5)
|   |   |   |   |   |   |   |   |   |   |   |   |   |   AGEGRP >= 2.5 : butrans (30/12)
|   |   |   |   |   |   |   |   |   |   |   |   EGEOLOC >= 48.5
|   |   |   |   |   |   |   |   |   |   |   |   |   ADMTYP < 1.5
|   |   |   |   |   |   |   |   |   |   |   |   |   |   AGEGRP < 2.5 : butrans (76/29)
|   |   |   |   |   |   |   |   |   |   |   |   |   |   AGEGRP >= 2.5 : opana (104/51)
|   |   |   |   |   |   |   |   |   |   |   |   |   ADMTYP >= 1.5 : opana (278/138)
|   |   |   |   |   |   |   |   |   REGION >= 4 : butrans (2/0)
|   |   |   |   |   |   |   |   EGEOLOC >= 50.5
|   |   |   |   |   |   |   |   |   AGEGRP < 2.5
|   |   |   |   |   |   |   |   |   |   REGION < 4.5
|   |   |   |   |   |   |   |   |   |   |   ADMTYP < 1.5
|   |   |   |   |   |   |   |   |   |   |   |   EGEOLOC < 53.5
|   |   |   |   |   |   |   |   |   |   |   |   |   EGEOLOC < 52.5 : opana (13/1)
|   |   |   |   |   |   |   |   |   |   |   |   |   EGEOLOC >= 52.5 : opana (4/0)
|   |   |   |   |   |   |   |   |   |   |   |   EGEOLOC >= 53.5
|   |   |   |   |   |   |   |   |   |   |   |   |   EGEOLOC < 55.5 : butrans (6.23/0)
|   |   |   |   |   |   |   |   |   |   |   |   |   EGEOLOC >= 55.5
|   |   |   |   |   |   |   |   |   |   |   |   |   |   REGION < 3.5 : butrans (1/0)
|   |   |   |   |   |   |   |   |   |   |   |   |   |   REGION >= 3.5
|   |   |   |   |   |   |   |   |   |   |   |   |   |   |   EGEOLOC < 63
|   |   |   |   |   |   |   |   |   |   |   |   |   |   |   |   EGEOLOC < 60
|   |   |   |   |   |   |   |   |   |   |   |   |   |   |   |   |   EGEOLOC < 57.5
|   |   |   |   |   |   |   |   |   |   |   |   |   |   |   |   |   |   EGEOLOC < 56.5 : opana (6/2)
|   |   |   |   |   |   |   |   |   |   |   |   |   |   |   |   |   |   EGEOLOC >= 56.5 : opana (10/5)
|   |   |   |   |   |   |   |   |   |   |   |   |   |   |   |   |   EGEOLOC >= 57.5 : opana (12/3)
|   |   |   |   |   |   |   |   |   |   |   |   |   |   |   |   EGEOLOC >= 60 : opana (41.31/17)
|   |   |   |   |   |   |   |   |   |   |   |   |   |   |   EGEOLOC >= 63
|   |   |   |   |   |   |   |   |   |   |   |   |   |   |   |   EGEOLOC < 64.5 : opana (9/1)
|   |   |   |   |   |   |   |   |   |   |   |   |   |   |   |   EGEOLOC >= 64.5 : opana (7/3)
|   |   |   |   |   |   |   |   |   |   |   ADMTYP >= 1.5
|   |   |   |   |   |   |   |   |   |   |   |   REGION < 3 : opana (1/0)
|   |   |   |   |   |   |   |   |   |   |   |   REGION >= 3
|   |   |   |   |   |   |   |   |   |   |   |   |   EGEOLOC < 55.5
|   |   |   |   |   |   |   |   |   |   |   |   |   |   EGEOLOC < 53.5
|   |   |   |   |   |   |   |   |   |   |   |   |   |   |   EGEOLOC < 52.5 : opana (11/5)
|   |   |   |   |   |   |   |   |   |   |   |   |   |   |   EGEOLOC >= 52.5 : opana (35/11)
|   |   |   |   |   |   |   |   |   |   |   |   |   |   EGEOLOC >= 53.5
|   |   |   |   |   |   |   |   |   |   |   |   |   |   |   EGEOLOC < 54.5 : butrans (10/3)
|   |   |   |   |   |   |   |   |   |   |   |   |   |   |   EGEOLOC >= 54.5 : butrans (2.22/0)
|   |   |   |   |   |   |   |   |   |   |   |   |   EGEOLOC >= 55.5
|   |   |   |   |   |   |   |   |   |   |   |   |   |   EGEOLOC < 64.5
|   |   |   |   |   |   |   |   |   |   |   |   |   |   |   EGEOLOC < 63
|   |   |   |   |   |   |   |   |   |   |   |   |   |   |   |   EGEOLOC < 60
|   |   |   |   |   |   |   |   |   |   |   |   |   |   |   |   |   EGEOLOC < 57.5
|   |   |   |   |   |   |   |   |   |   |   |   |   |   |   |   |   |   EGEOLOC < 56.5 : opana (9/2)
|   |   |   |   |   |   |   |   |   |   |   |   |   |   |   |   |   |   EGEOLOC >= 56.5 : opana (5/1)
|   |   |   |   |   |   |   |   |   |   |   |   |   |   |   |   |   EGEOLOC >= 57.5 : opana (3/0)
|   |   |   |   |   |   |   |   |   |   |   |   |   |   |   |   EGEOLOC >= 60 : opana (103.55/25)
|   |   |   |   |   |   |   |   |   |   |   |   |   |   |   EGEOLOC >= 63 : opana (10/1)
|   |   |   |   |   |   |   |   |   |   |   |   |   |   EGEOLOC >= 64.5 : opana (8/3)
|   |   |   |   |   |   |   |   |   |   REGION >= 4.5 : opana (3/-0)
|   |   |   |   |   |   |   |   |   AGEGRP >= 2.5
|   |   |   |   |   |   |   |   |   |   REGION < 3.5 : opana (6/0)
|   |   |   |   |   |   |   |   |   |   REGION >= 3.5
|   |   |   |   |   |   |   |   |   |   |   ADMTYP < 1.5
|   |   |   |   |   |   |   |   |   |   |   |   EGEOLOC < 64.5
|   |   |   |   |   |   |   |   |   |   |   |   |   EGEOLOC < 55
|   |   |   |   |   |   |   |   |   |   |   |   |   |   EGEOLOC < 53.5
|   |   |   |   |   |   |   |   |   |   |   |   |   |   |   EGEOLOC < 52.5 : opana (14/6)
|   |   |   |   |   |   |   |   |   |   |   |   |   |   |   EGEOLOC >= 52.5 : opana (4/1)
|   |   |   |   |   |   |   |   |   |   |   |   |   |   EGEOLOC >= 53.5 : butrans (10/3)
|   |   |   |   |   |   |   |   |   |   |   |   |   EGEOLOC >= 55
|   |   |   |   |   |   |   |   |   |   |   |   |   |   EGEOLOC < 57.5
|   |   |   |   |   |   |   |   |   |   |   |   |   |   |   EGEOLOC < 56.5 : opana (20/3)
|   |   |   |   |   |   |   |   |   |   |   |   |   |   |   EGEOLOC >= 56.5 : opana (5/1)
|   |   |   |   |   |   |   |   |   |   |   |   |   |   EGEOLOC >= 57.5
|   |   |   |   |   |   |   |   |   |   |   |   |   |   |   EGEOLOC < 60.5
|   |   |   |   |   |   |   |   |   |   |   |   |   |   |   |   EGEOLOC < 58.5 : opana (4/2)
|   |   |   |   |   |   |   |   |   |   |   |   |   |   |   |   EGEOLOC >= 58.5 : butrans (3/0)
|   |   |   |   |   |   |   |   |   |   |   |   |   |   |   EGEOLOC >= 60.5
|   |   |   |   |   |   |   |   |   |   |   |   |   |   |   |   EGEOLOC < 63 : opana (42/15)
|   |   |   |   |   |   |   |   |   |   |   |   |   |   |   |   EGEOLOC >= 63 : opana (3/1)
|   |   |   |   |   |   |   |   |   |   |   |   EGEOLOC >= 64.5 : butrans (28/8)
|   |   |   |   |   |   |   |   |   |   |   ADMTYP >= 1.5
|   |   |   |   |   |   |   |   |   |   |   |   EGEOLOC < 57.5
|   |   |   |   |   |   |   |   |   |   |   |   |   EGEOLOC < 55
|   |   |   |   |   |   |   |   |   |   |   |   |   |   EGEOLOC < 53.5
|   |   |   |   |   |   |   |   |   |   |   |   |   |   |   EGEOLOC < 52.5 : opana (14/6)
|   |   |   |   |   |   |   |   |   |   |   |   |   |   |   EGEOLOC >= 52.5 : opana (18/3)
|   |   |   |   |   |   |   |   |   |   |   |   |   |   EGEOLOC >= 53.5 : butrans (5/1)
|   |   |   |   |   |   |   |   |   |   |   |   |   EGEOLOC >= 55
|   |   |   |   |   |   |   |   |   |   |   |   |   |   EGEOLOC < 56.5 : opana (9/1)
|   |   |   |   |   |   |   |   |   |   |   |   |   |   EGEOLOC >= 56.5 : opana (3/0)
|   |   |   |   |   |   |   |   |   |   |   |   EGEOLOC >= 57.5
|   |   |   |   |   |   |   |   |   |   |   |   |   EGEOLOC < 60.5
|   |   |   |   |   |   |   |   |   |   |   |   |   |   EGEOLOC < 58.5 : butrans (6/2)
|   |   |   |   |   |   |   |   |   |   |   |   |   |   EGEOLOC >= 58.5 : butrans (2/0)
|   |   |   |   |   |   |   |   |   |   |   |   |   EGEOLOC >= 60.5
|   |   |   |   |   |   |   |   |   |   |   |   |   |   EGEOLOC < 64.5
|   |   |   |   |   |   |   |   |   |   |   |   |   |   |   EGEOLOC < 63 : opana (60/26)
|   |   |   |   |   |   |   |   |   |   |   |   |   |   |   EGEOLOC >= 63 : opana (2/1)
|   |   |   |   |   |   |   |   |   |   |   |   |   |   EGEOLOC >= 64.5 : butrans (19/7)
|   |   |   |   |   |   AGEGRP >= 3.5
|   |   |   |   |   |   |   EGEOLOC < 45
|   |   |   |   |   |   |   |   EGEOLOC < 17.5
|   |   |   |   |   |   |   |   |   REGION < 2.5
|   |   |   |   |   |   |   |   |   |   EGEOLOC < 11.5
|   |   |   |   |   |   |   |   |   |   |   EGEOLOC < 4.5
|   |   |   |   |   |   |   |   |   |   |   |   AGEGRP < 4.5
|   |   |   |   |   |   |   |   |   |   |   |   |   EGEOLOC < 2.5 : butrans (2/0)
|   |   |   |   |   |   |   |   |   |   |   |   |   EGEOLOC >= 2.5
|   |   |   |   |   |   |   |   |   |   |   |   |   |   ADMTYP < 1.5 : opana (37/11)
|   |   |   |   |   |   |   |   |   |   |   |   |   |   ADMTYP >= 1.5 : opana (43/12)
|   |   |   |   |   |   |   |   |   |   |   |   AGEGRP >= 4.5
|   |   |   |   |   |   |   |   |   |   |   |   |   REGION < 1.5
|   |   |   |   |   |   |   |   |   |   |   |   |   |   ADMTYP < 1.5
|   |   |   |   |   |   |   |   |   |   |   |   |   |   |   EGEOLOC < 2.5 : opana (3/0)
|   |   |   |   |   |   |   |   |   |   |   |   |   |   |   EGEOLOC >= 2.5 : opana (28/12)
|   |   |   |   |   |   |   |   |   |   |   |   |   |   ADMTYP >= 1.5 : opana (32/15)
|   |   |   |   |   |   |   |   |   |   |   |   |   REGION >= 1.5 : butrans (2/0)
|   |   |   |   |   |   |   |   |   |   |   EGEOLOC >= 4.5
|   |   |   |   |   |   |   |   |   |   |   |   AGEGRP < 4.5
|   |   |   |   |   |   |   |   |   |   |   |   |   EGEOLOC < 7.5
|   |   |   |   |   |   |   |   |   |   |   |   |   |   EGEOLOC < 6.5
|   |   |   |   |   |   |   |   |   |   |   |   |   |   |   EGEOLOC < 5.5
|   |   |   |   |   |   |   |   |   |   |   |   |   |   |   |   ADMTYP < 1.5 : butrans (6/2)
|   |   |   |   |   |   |   |   |   |   |   |   |   |   |   |   ADMTYP >= 1.5 : opana (9/2)
|   |   |   |   |   |   |   |   |   |   |   |   |   |   |   EGEOLOC >= 5.5
|   |   |   |   |   |   |   |   |   |   |   |   |   |   |   |   ADMTYP < 1.5 : opana (3/1)
|   |   |   |   |   |   |   |   |   |   |   |   |   |   |   |   ADMTYP >= 1.5 : opana (5/2)
|   |   |   |   |   |   |   |   |   |   |   |   |   |   EGEOLOC >= 6.5 : opana (6/3)
|   |   |   |   |   |   |   |   |   |   |   |   |   EGEOLOC >= 7.5
|   |   |   |   |   |   |   |   |   |   |   |   |   |   ADMTYP < 1.5
|   |   |   |   |   |   |   |   |   |   |   |   |   |   |   EGEOLOC < 9.5 : butrans (3/0)
|   |   |   |   |   |   |   |   |   |   |   |   |   |   |   EGEOLOC >= 9.5 : butrans (37.33/17.33)
|   |   |   |   |   |   |   |   |   |   |   |   |   |   ADMTYP >= 1.5
|   |   |   |   |   |   |   |   |   |   |   |   |   |   |   EGEOLOC < 9.5 : butrans (1/0)
|   |   |   |   |   |   |   |   |   |   |   |   |   |   |   EGEOLOC >= 9.5 : butrans (63.53/24.53)
|   |   |   |   |   |   |   |   |   |   |   |   AGEGRP >= 4.5
|   |   |   |   |   |   |   |   |   |   |   |   |   EGEOLOC < 7.5
|   |   |   |   |   |   |   |   |   |   |   |   |   |   ADMTYP < 1.5
|   |   |   |   |   |   |   |   |   |   |   |   |   |   |   EGEOLOC < 5.5 : butrans (8/3)
|   |   |   |   |   |   |   |   |   |   |   |   |   |   |   EGEOLOC >= 5.5
|   |   |   |   |   |   |   |   |   |   |   |   |   |   |   |   EGEOLOC < 6.5 : butrans (3/0)
|   |   |   |   |   |   |   |   |   |   |   |   |   |   |   |   EGEOLOC >= 6.5 : butrans (4/1)
|   |   |   |   |   |   |   |   |   |   |   |   |   |   ADMTYP >= 1.5
|   |   |   |   |   |   |   |   |   |   |   |   |   |   |   EGEOLOC < 5.5 : opana (9/4)
|   |   |   |   |   |   |   |   |   |   |   |   |   |   |   EGEOLOC >= 5.5
|   |   |   |   |   |   |   |   |   |   |   |   |   |   |   |   EGEOLOC < 6.5 : butrans (4/0)
|   |   |   |   |   |   |   |   |   |   |   |   |   |   |   |   EGEOLOC >= 6.5 : butrans (5/1)
|   |   |   |   |   |   |   |   |   |   |   |   |   EGEOLOC >= 7.5
|   |   |   |   |   |   |   |   |   |   |   |   |   |   EGEOLOC < 9.5
|   |   |   |   |   |   |   |   |   |   |   |   |   |   |   ADMTYP < 1.5 : opana (8/2)
|   |   |   |   |   |   |   |   |   |   |   |   |   |   |   ADMTYP >= 1.5 : opana (10/1)
|   |   |   |   |   |   |   |   |   |   |   |   |   |   EGEOLOC >= 9.5
|   |   |   |   |   |   |   |   |   |   |   |   |   |   |   ADMTYP < 1.5 : butrans (17/8)
|   |   |   |   |   |   |   |   |   |   |   |   |   |   |   ADMTYP >= 1.5 : opana (16/7)
|   |   |   |   |   |   |   |   |   |   EGEOLOC >= 11.5
|   |   |   |   |   |   |   |   |   |   |   ADMTYP < 1.5
|   |   |   |   |   |   |   |   |   |   |   |   AGEGRP < 4.5
|   |   |   |   |   |   |   |   |   |   |   |   |   EGEOLOC < 16.5
|   |   |   |   |   |   |   |   |   |   |   |   |   |   REGION < 1.5
|   |   |   |   |   |   |   |   |   |   |   |   |   |   |   EGEOLOC < 12.5 : opana (60.98/20)
|   |   |   |   |   |   |   |   |   |   |   |   |   |   |   EGEOLOC >= 12.5 : opana (86/22)
|   |   |   |   |   |   |   |   |   |   |   |   |   |   REGION >= 1.5 : opana (91/31)
|   |   |   |   |   |   |   |   |   |   |   |   |   EGEOLOC >= 16.5 : opana (50/9)
|   |   |   |   |   |   |   |   |   |   |   |   AGEGRP >= 4.5
|   |   |   |   |   |   |   |   |   |   |   |   |   REGION < 1.5
|   |   |   |   |   |   |   |   |   |   |   |   |   |   EGEOLOC < 12.5 : opana (69.79/20.79)
|   |   |   |   |   |   |   |   |   |   |   |   |   |   EGEOLOC >= 12.5 : opana (155/54)
|   |   |   |   |   |   |   |   |   |   |   |   |   REGION >= 1.5
|   |   |   |   |   |   |   |   |   |   |   |   |   |   EGEOLOC < 16.5 : opana (107/22)
|   |   |   |   |   |   |   |   |   |   |   |   |   |   EGEOLOC >= 16.5 : opana (89/40)
|   |   |   |   |   |   |   |   |   |   |   ADMTYP >= 1.5
|   |   |   |   |   |   |   |   |   |   |   |   EGEOLOC < 16.5
|   |   |   |   |   |   |   |   |   |   |   |   |   EGEOLOC < 12.5
|   |   |   |   |   |   |   |   |   |   |   |   |   |   AGEGRP < 4.5 : opana (74.32/28)
|   |   |   |   |   |   |   |   |   |   |   |   |   |   AGEGRP >= 4.5 : opana (128.93/43.93)
|   |   |   |   |   |   |   |   |   |   |   |   |   EGEOLOC >= 12.5
|   |   |   |   |   |   |   |   |   |   |   |   |   |   AGEGRP < 4.5
|   |   |   |   |   |   |   |   |   |   |   |   |   |   |   EGEOLOC < 14.5 : opana (114/46)
|   |   |   |   |   |   |   |   |   |   |   |   |   |   |   EGEOLOC >= 14.5 : opana (83/31)
|   |   |   |   |   |   |   |   |   |   |   |   |   |   AGEGRP >= 4.5
|   |   |   |   |   |   |   |   |   |   |   |   |   |   |   EGEOLOC < 14.5 : opana (185/73)
|   |   |   |   |   |   |   |   |   |   |   |   |   |   |   EGEOLOC >= 14.5 : opana (95/40)
|   |   |   |   |   |   |   |   |   |   |   |   EGEOLOC >= 16.5
|   |   |   |   |   |   |   |   |   |   |   |   |   AGEGRP < 4.5 : opana (56/10)
|   |   |   |   |   |   |   |   |   |   |   |   |   AGEGRP >= 4.5 : opana (95/33)
|   |   |   |   |   |   |   |   |   REGION >= 2.5
|   |   |   |   |   |   |   |   |   |   EGEOLOC < 15
|   |   |   |   |   |   |   |   |   |   |   EGEOLOC < 12.5
|   |   |   |   |   |   |   |   |   |   |   |   ADMTYP < 1.5
|   |   |   |   |   |   |   |   |   |   |   |   |   AGEGRP < 4.5
|   |   |   |   |   |   |   |   |   |   |   |   |   |   REGION < 4.5 : butrans (1/0)
|   |   |   |   |   |   |   |   |   |   |   |   |   |   REGION >= 4.5
|   |   |   |   |   |   |   |   |   |   |   |   |   |   |   EGEOLOC < 6.5 : opana (35.37/17)
|   |   |   |   |   |   |   |   |   |   |   |   |   |   |   EGEOLOC >= 6.5 : butrans (1/0)
|   |   |   |   |   |   |   |   |   |   |   |   |   AGEGRP >= 4.5
|   |   |   |   |   |   |   |   |   |   |   |   |   |   REGION < 4 : butrans (4/1)
|   |   |   |   |   |   |   |   |   |   |   |   |   |   REGION >= 4 : butrans (15/7)
|   |   |   |   |   |   |   |   |   |   |   |   ADMTYP >= 1.5
|   |   |   |   |   |   |   |   |   |   |   |   |   AGEGRP < 4.5
|   |   |   |   |   |   |   |   |   |   |   |   |   |   EGEOLOC < 6.5
|   |   |   |   |   |   |   |   |   |   |   |   |   |   |   REGION < 4 : opana (1/0)
|   |   |   |   |   |   |   |   |   |   |   |   |   |   |   REGION >= 4 : butrans (34.49/13.49)
|   |   |   |   |   |   |   |   |   |   |   |   |   |   EGEOLOC >= 6.5 : butrans (1/-0)
|   |   |   |   |   |   |   |   |   |   |   |   |   AGEGRP >= 4.5
|   |   |   |   |   |   |   |   |   |   |   |   |   |   EGEOLOC < 2.5
|   |   |   |   |   |   |   |   |   |   |   |   |   |   |   REGION < 4.5 : opana (1/0)
|   |   |   |   |   |   |   |   |   |   |   |   |   |   |   REGION >= 4.5 : opana (35/14)
|   |   |   |   |   |   |   |   |   |   |   |   |   |   EGEOLOC >= 2.5 : opana (1/0)
|   |   |   |   |   |   |   |   |   |   |   EGEOLOC >= 12.5 : opana (1/0)
|   |   |   |   |   |   |   |   |   |   EGEOLOC >= 15 : butrans (6/-0)
|   |   |   |   |   |   |   |   EGEOLOC >= 17.5
|   |   |   |   |   |   |   |   |   EGEOLOC < 32.5
|   |   |   |   |   |   |   |   |   |   EGEOLOC < 19.5
|   |   |   |   |   |   |   |   |   |   |   AGEGRP < 4.5
|   |   |   |   |   |   |   |   |   |   |   |   ADMTYP < 1.5
|   |   |   |   |   |   |   |   |   |   |   |   |   EGEOLOC < 18.5
|   |   |   |   |   |   |   |   |   |   |   |   |   |   REGION < 2.5 : opana (79.35/30.35)
|   |   |   |   |   |   |   |   |   |   |   |   |   |   REGION >= 2.5 : opana (1/0)
|   |   |   |   |   |   |   |   |   |   |   |   |   EGEOLOC >= 18.5
|   |   |   |   |   |   |   |   |   |   |   |   |   |   REGION < 3.5 : opana (122/58)
|   |   |   |   |   |   |   |   |   |   |   |   |   |   REGION >= 3.5 : opana (1/0)
|   |   |   |   |   |   |   |   |   |   |   |   ADMTYP >= 1.5
|   |   |   |   |   |   |   |   |   |   |   |   |   EGEOLOC < 18.5 : opana (140.51/68.51)
|   |   |   |   |   |   |   |   |   |   |   |   |   EGEOLOC >= 18.5
|   |   |   |   |   |   |   |   |   |   |   |   |   |   REGION < 3.5 : opana (156/72)
|   |   |   |   |   |   |   |   |   |   |   |   |   |   REGION >= 3.5 : opana (2/1)
|   |   |   |   |   |   |   |   |   |   |   AGEGRP >= 4.5
|   |   |   |   |   |   |   |   |   |   |   |   EGEOLOC < 18.5
|   |   |   |   |   |   |   |   |   |   |   |   |   ADMTYP < 1.5 : butrans (72/33)
|   |   |   |   |   |   |   |   |   |   |   |   |   ADMTYP >= 1.5 : opana (103/40)
|   |   |   |   |   |   |   |   |   |   |   |   EGEOLOC >= 18.5
|   |   |   |   |   |   |   |   |   |   |   |   |   REGION < 2.5
|   |   |   |   |   |   |   |   |   |   |   |   |   |   ADMTYP < 1.5 : opana (114/49)
|   |   |   |   |   |   |   |   |   |   |   |   |   |   ADMTYP >= 1.5 : opana (158/69)
|   |   |   |   |   |   |   |   |   |   |   |   |   REGION >= 2.5
|   |   |   |   |   |   |   |   |   |   |   |   |   |   ADMTYP < 1.5 : butrans (1/0)
|   |   |   |   |   |   |   |   |   |   |   |   |   |   ADMTYP >= 1.5 : opana (1/0)
|   |   |   |   |   |   |   |   |   |   EGEOLOC >= 19.5
|   |   |   |   |   |   |   |   |   |   |   EGEOLOC < 25.5
|   |   |   |   |   |   |   |   |   |   |   |   AGEGRP < 4.5
|   |   |   |   |   |   |   |   |   |   |   |   |   REGION < 2.5
|   |   |   |   |   |   |   |   |   |   |   |   |   |   EGEOLOC < 24.5
|   |   |   |   |   |   |   |   |   |   |   |   |   |   |   ADMTYP < 1.5
|   |   |   |   |   |   |   |   |   |   |   |   |   |   |   |   EGEOLOC < 22.5
|   |   |   |   |   |   |   |   |   |   |   |   |   |   |   |   |   EGEOLOC < 21 : opana (19/7)
|   |   |   |   |   |   |   |   |   |   |   |   |   |   |   |   |   EGEOLOC >= 21 : opana (5/2)
|   |   |   |   |   |   |   |   |   |   |   |   |   |   |   |   EGEOLOC >= 22.5
|   |   |   |   |   |   |   |   |   |   |   |   |   |   |   |   |   EGEOLOC < 23.5 : butrans (13/3)
|   |   |   |   |   |   |   |   |   |   |   |   |   |   |   |   |   EGEOLOC >= 23.5 : butrans (1/0)
|   |   |   |   |   |   |   |   |   |   |   |   |   |   |   ADMTYP >= 1.5
|   |   |   |   |   |   |   |   |   |   |   |   |   |   |   |   EGEOLOC < 21 : butrans (24/5)
|   |   |   |   |   |   |   |   |   |   |   |   |   |   |   |   EGEOLOC >= 21
|   |   |   |   |   |   |   |   |   |   |   |   |   |   |   |   |   EGEOLOC < 22.5 : opana (4/0)
|   |   |   |   |   |   |   |   |   |   |   |   |   |   |   |   |   EGEOLOC >= 22.5
|   |   |   |   |   |   |   |   |   |   |   |   |   |   |   |   |   |   EGEOLOC < 23.5 : butrans (7/2)
|   |   |   |   |   |   |   |   |   |   |   |   |   |   |   |   |   |   EGEOLOC >= 23.5 : opana (3/1)
|   |   |   |   |   |   |   |   |   |   |   |   |   |   EGEOLOC >= 24.5
|   |   |   |   |   |   |   |   |   |   |   |   |   |   |   ADMTYP < 1.5 : opana (39/17)
|   |   |   |   |   |   |   |   |   |   |   |   |   |   |   ADMTYP >= 1.5 : opana (28/6)
|   |   |   |   |   |   |   |   |   |   |   |   |   REGION >= 2.5 : butrans (1/0)
|   |   |   |   |   |   |   |   |   |   |   |   AGEGRP >= 4.5
|   |   |   |   |   |   |   |   |   |   |   |   |   REGION < 2.5
|   |   |   |   |   |   |   |   |   |   |   |   |   |   ADMTYP < 1.5
|   |   |   |   |   |   |   |   |   |   |   |   |   |   |   EGEOLOC < 23.5
|   |   |   |   |   |   |   |   |   |   |   |   |   |   |   |   EGEOLOC < 21.5 : opana (9/4)
|   |   |   |   |   |   |   |   |   |   |   |   |   |   |   |   EGEOLOC >= 21.5 : opana (5/2)
|   |   |   |   |   |   |   |   |   |   |   |   |   |   |   EGEOLOC >= 23.5
|   |   |   |   |   |   |   |   |   |   |   |   |   |   |   |   EGEOLOC < 24.5 : butrans (3/1)
|   |   |   |   |   |   |   |   |   |   |   |   |   |   |   |   EGEOLOC >= 24.5 : butrans (39/10)
|   |   |   |   |   |   |   |   |   |   |   |   |   |   ADMTYP >= 1.5
|   |   |   |   |   |   |   |   |   |   |   |   |   |   |   EGEOLOC < 24.5
|   |   |   |   |   |   |   |   |   |   |   |   |   |   |   |   EGEOLOC < 21.5 : butrans (6/1)
|   |   |   |   |   |   |   |   |   |   |   |   |   |   |   |   EGEOLOC >= 21.5
|   |   |   |   |   |   |   |   |   |   |   |   |   |   |   |   |   EGEOLOC < 23.5 : butrans (8/3)
|   |   |   |   |   |   |   |   |   |   |   |   |   |   |   |   |   EGEOLOC >= 23.5 : butrans (3/1)
|   |   |   |   |   |   |   |   |   |   |   |   |   |   |   EGEOLOC >= 24.5 : butrans (42/8)
|   |   |   |   |   |   |   |   |   |   |   |   |   REGION >= 2.5 : opana (4/0)
|   |   |   |   |   |   |   |   |   |   |   EGEOLOC >= 25.5
|   |   |   |   |   |   |   |   |   |   |   |   AGEGRP < 4.5
|   |   |   |   |   |   |   |   |   |   |   |   |   EGEOLOC < 29
|   |   |   |   |   |   |   |   |   |   |   |   |   |   ADMTYP < 1.5 : opana (4/1)
|   |   |   |   |   |   |   |   |   |   |   |   |   |   ADMTYP >= 1.5 : butrans (3/0)
|   |   |   |   |   |   |   |   |   |   |   |   |   EGEOLOC >= 29
|   |   |   |   |   |   |   |   |   |   |   |   |   |   ADMTYP < 1.5 : opana (12/4)
|   |   |   |   |   |   |   |   |   |   |   |   |   |   ADMTYP >= 1.5 : opana (5/0)
|   |   |   |   |   |   |   |   |   |   |   |   AGEGRP >= 4.5
|   |   |   |   |   |   |   |   |   |   |   |   |   ADMTYP < 1.5
|   |   |   |   |   |   |   |   |   |   |   |   |   |   REGION < 2.5
|   |   |   |   |   |   |   |   |   |   |   |   |   |   |   REGION < 1.5 : butrans (1/0)
|   |   |   |   |   |   |   |   |   |   |   |   |   |   |   REGION >= 1.5
|   |   |   |   |   |   |   |   |   |   |   |   |   |   |   |   EGEOLOC < 27 : opana (5/0)
|   |   |   |   |   |   |   |   |   |   |   |   |   |   |   |   EGEOLOC >= 27 : opana (4/2)
|   |   |   |   |   |   |   |   |   |   |   |   |   |   REGION >= 2.5 : butrans (6/1)
|   |   |   |   |   |   |   |   |   |   |   |   |   ADMTYP >= 1.5
|   |   |   |   |   |   |   |   |   |   |   |   |   |   EGEOLOC < 30 : butrans (3/0)
|   |   |   |   |   |   |   |   |   |   |   |   |   |   EGEOLOC >= 30
|   |   |   |   |   |   |   |   |   |   |   |   |   |   |   REGION < 2 : butrans (1/0)
|   |   |   |   |   |   |   |   |   |   |   |   |   |   |   REGION >= 2 : butrans (6/2)
|   |   |   |   |   |   |   |   |   EGEOLOC >= 32.5
|   |   |   |   |   |   |   |   |   |   EGEOLOC < 33.5
|   |   |   |   |   |   |   |   |   |   |   REGION < 2.5 : opana (9/0)
|   |   |   |   |   |   |   |   |   |   |   REGION >= 2.5
|   |   |   |   |   |   |   |   |   |   |   |   AGEGRP < 4.5
|   |   |   |   |   |   |   |   |   |   |   |   |   ADMTYP < 1.5 : opana (102.41/30.41)
|   |   |   |   |   |   |   |   |   |   |   |   |   ADMTYP >= 1.5 : opana (110.45/26.45)
|   |   |   |   |   |   |   |   |   |   |   |   AGEGRP >= 4.5
|   |   |   |   |   |   |   |   |   |   |   |   |   ADMTYP < 1.5
|   |   |   |   |   |   |   |   |   |   |   |   |   |   REGION < 4 : opana (118.47/53)
|   |   |   |   |   |   |   |   |   |   |   |   |   |   REGION >= 4 : opana (1/0)
|   |   |   |   |   |   |   |   |   |   |   |   |   ADMTYP >= 1.5
|   |   |   |   |   |   |   |   |   |   |   |   |   |   REGION < 4 : opana (97.39/26)
|   |   |   |   |   |   |   |   |   |   |   |   |   |   REGION >= 4 : opana (1/0)
|   |   |   |   |   |   |   |   |   |   EGEOLOC >= 33.5
|   |   |   |   |   |   |   |   |   |   |   ADMTYP < 1.5
|   |   |   |   |   |   |   |   |   |   |   |   REGION < 3.5
|   |   |   |   |   |   |   |   |   |   |   |   |   AGEGRP < 4.5
|   |   |   |   |   |   |   |   |   |   |   |   |   |   EGEOLOC < 36.5
|   |   |   |   |   |   |   |   |   |   |   |   |   |   |   EGEOLOC < 35.5
|   |   |   |   |   |   |   |   |   |   |   |   |   |   |   |   EGEOLOC < 34.5 : opana (119/54)
|   |   |   |   |   |   |   |   |   |   |   |   |   |   |   |   EGEOLOC >= 34.5 : opana (19/7)
|   |   |   |   |   |   |   |   |   |   |   |   |   |   |   EGEOLOC >= 35.5 : opana (59/11)
|   |   |   |   |   |   |   |   |   |   |   |   |   |   EGEOLOC >= 36.5
|   |   |   |   |   |   |   |   |   |   |   |   |   |   |   EGEOLOC < 42.5
|   |   |   |   |   |   |   |   |   |   |   |   |   |   |   |   EGEOLOC < 40
|   |   |   |   |   |   |   |   |   |   |   |   |   |   |   |   |   EGEOLOC < 38.5
|   |   |   |   |   |   |   |   |   |   |   |   |   |   |   |   |   |   EGEOLOC < 37.5 : opana (57/26)
|   |   |   |   |   |   |   |   |   |   |   |   |   |   |   |   |   |   EGEOLOC >= 37.5 : opana (29/13)
|   |   |   |   |   |   |   |   |   |   |   |   |   |   |   |   |   EGEOLOC >= 38.5 : opana (9/2)
|   |   |   |   |   |   |   |   |   |   |   |   |   |   |   |   EGEOLOC >= 40
|   |   |   |   |   |   |   |   |   |   |   |   |   |   |   |   |   EGEOLOC < 41.5 : butrans (27/11)
|   |   |   |   |   |   |   |   |   |   |   |   |   |   |   |   |   EGEOLOC >= 41.5 : butrans (21/9)
|   |   |   |   |   |   |   |   |   |   |   |   |   |   |   EGEOLOC >= 42.5
|   |   |   |   |   |   |   |   |   |   |   |   |   |   |   |   EGEOLOC < 43.5 : opana (7/2)
|   |   |   |   |   |   |   |   |   |   |   |   |   |   |   |   EGEOLOC >= 43.5 : opana (64.74/26)
|   |   |   |   |   |   |   |   |   |   |   |   |   AGEGRP >= 4.5
|   |   |   |   |   |   |   |   |   |   |   |   |   |   EGEOLOC < 34.5 : opana (141.37/69)
|   |   |   |   |   |   |   |   |   |   |   |   |   |   EGEOLOC >= 34.5
|   |   |   |   |   |   |   |   |   |   |   |   |   |   |   EGEOLOC < 36.5
|   |   |   |   |   |   |   |   |   |   |   |   |   |   |   |   EGEOLOC < 35.5 : opana (30/13)
|   |   |   |   |   |   |   |   |   |   |   |   |   |   |   |   EGEOLOC >= 35.5 : opana (64/12)
|   |   |   |   |   |   |   |   |   |   |   |   |   |   |   EGEOLOC >= 36.5
|   |   |   |   |   |   |   |   |   |   |   |   |   |   |   |   EGEOLOC < 43.5
|   |   |   |   |   |   |   |   |   |   |   |   |   |   |   |   |   EGEOLOC < 42.5
|   |   |   |   |   |   |   |   |   |   |   |   |   |   |   |   |   |   EGEOLOC < 41.5
|   |   |   |   |   |   |   |   |   |   |   |   |   |   |   |   |   |   |   EGEOLOC < 40
|   |   |   |   |   |   |   |   |   |   |   |   |   |   |   |   |   |   |   |   EGEOLOC < 38.5
|   |   |   |   |   |   |   |   |   |   |   |   |   |   |   |   |   |   |   |   |   EGEOLOC < 37.5 : opana (88/38)
|   |   |   |   |   |   |   |   |   |   |   |   |   |   |   |   |   |   |   |   |   EGEOLOC >= 37.5 : butrans (23/10)
|   |   |   |   |   |   |   |   |   |   |   |   |   |   |   |   |   |   |   |   EGEOLOC >= 38.5 : opana (11/1)
|   |   |   |   |   |   |   |   |   |   |   |   |   |   |   |   |   |   |   EGEOLOC >= 40 : butrans (44/21)
|   |   |   |   |   |   |   |   |   |   |   |   |   |   |   |   |   |   EGEOLOC >= 41.5 : opana (26/10)
|   |   |   |   |   |   |   |   |   |   |   |   |   |   |   |   |   EGEOLOC >= 42.5 : butrans (16/7)
|   |   |   |   |   |   |   |   |   |   |   |   |   |   |   |   EGEOLOC >= 43.5 : opana (71/29)
|   |   |   |   |   |   |   |   |   |   |   |   REGION >= 3.5
|   |   |   |   |   |   |   |   |   |   |   |   |   EGEOLOC < 39.5
|   |   |   |   |   |   |   |   |   |   |   |   |   |   EGEOLOC < 36.5 : opana (1/0)
|   |   |   |   |   |   |   |   |   |   |   |   |   |   EGEOLOC >= 36.5 : opana (2/1)
|   |   |   |   |   |   |   |   |   |   |   |   |   EGEOLOC >= 39.5 : butrans (4/0)
|   |   |   |   |   |   |   |   |   |   |   ADMTYP >= 1.5
|   |   |   |   |   |   |   |   |   |   |   |   EGEOLOC < 35.5
|   |   |   |   |   |   |   |   |   |   |   |   |   EGEOLOC < 34.5
|   |   |   |   |   |   |   |   |   |   |   |   |   |   AGEGRP < 4.5 : butrans (167/79)
|   |   |   |   |   |   |   |   |   |   |   |   |   |   AGEGRP >= 4.5 : opana (195.49/85)
|   |   |   |   |   |   |   |   |   |   |   |   |   EGEOLOC >= 34.5
|   |   |   |   |   |   |   |   |   |   |   |   |   |   AGEGRP < 4.5 : butrans (11/5)
|   |   |   |   |   |   |   |   |   |   |   |   |   |   AGEGRP >= 4.5 : opana (31/12)
|   |   |   |   |   |   |   |   |   |   |   |   EGEOLOC >= 35.5
|   |   |   |   |   |   |   |   |   |   |   |   |   REGION < 4
|   |   |   |   |   |   |   |   |   |   |   |   |   |   AGEGRP < 4.5
|   |   |   |   |   |   |   |   |   |   |   |   |   |   |   EGEOLOC < 43.5
|   |   |   |   |   |   |   |   |   |   |   |   |   |   |   |   EGEOLOC < 41.5
|   |   |   |   |   |   |   |   |   |   |   |   |   |   |   |   |   EGEOLOC < 37.5
|   |   |   |   |   |   |   |   |   |   |   |   |   |   |   |   |   |   EGEOLOC < 36.5 : opana (59/21)
|   |   |   |   |   |   |   |   |   |   |   |   |   |   |   |   |   |   EGEOLOC >= 36.5 : opana (91/29)
|   |   |   |   |   |   |   |   |   |   |   |   |   |   |   |   |   EGEOLOC >= 37.5
|   |   |   |   |   |   |   |   |   |   |   |   |   |   |   |   |   |   EGEOLOC < 40
|   |   |   |   |   |   |   |   |   |   |   |   |   |   |   |   |   |   |   EGEOLOC < 38.5 : butrans (29/14)
|   |   |   |   |   |   |   |   |   |   |   |   |   |   |   |   |   |   |   EGEOLOC >= 38.5 : opana (10/2)
|   |   |   |   |   |   |   |   |   |   |   |   |   |   |   |   |   |   EGEOLOC >= 40 : butrans (40/19)
|   |   |   |   |   |   |   |   |   |   |   |   |   |   |   |   EGEOLOC >= 41.5
|   |   |   |   |   |   |   |   |   |   |   |   |   |   |   |   |   EGEOLOC < 42.5 : opana (49/14)
|   |   |   |   |   |   |   |   |   |   |   |   |   |   |   |   |   EGEOLOC >= 42.5 : opana (13/3)
|   |   |   |   |   |   |   |   |   |   |   |   |   |   |   EGEOLOC >= 43.5 : opana (102.98/51)
|   |   |   |   |   |   |   |   |   |   |   |   |   |   AGEGRP >= 4.5
|   |   |   |   |   |   |   |   |   |   |   |   |   |   |   EGEOLOC < 36.5 : opana (51/9)
|   |   |   |   |   |   |   |   |   |   |   |   |   |   |   EGEOLOC >= 36.5
|   |   |   |   |   |   |   |   |   |   |   |   |   |   |   |   EGEOLOC < 41.5
|   |   |   |   |   |   |   |   |   |   |   |   |   |   |   |   |   EGEOLOC < 37.5 : opana (76/28)
|   |   |   |   |   |   |   |   |   |   |   |   |   |   |   |   |   EGEOLOC >= 37.5
|   |   |   |   |   |   |   |   |   |   |   |   |   |   |   |   |   |   EGEOLOC < 38.5 : butrans (33/11)
|   |   |   |   |   |   |   |   |   |   |   |   |   |   |   |   |   |   EGEOLOC >= 38.5
|   |   |   |   |   |   |   |   |   |   |   |   |   |   |   |   |   |   |   EGEOLOC < 40 : opana (12/0)
|   |   |   |   |   |   |   |   |   |   |   |   |   |   |   |   |   |   |   EGEOLOC >= 40 : butrans (27/10)
|   |   |   |   |   |   |   |   |   |   |   |   |   |   |   |   EGEOLOC >= 41.5
|   |   |   |   |   |   |   |   |   |   |   |   |   |   |   |   |   EGEOLOC < 42.5 : opana (50/15)
|   |   |   |   |   |   |   |   |   |   |   |   |   |   |   |   |   EGEOLOC >= 42.5
|   |   |   |   |   |   |   |   |   |   |   |   |   |   |   |   |   |   EGEOLOC < 43.5 : opana (21/10)
|   |   |   |   |   |   |   |   |   |   |   |   |   |   |   |   |   |   EGEOLOC >= 43.5 : opana (167/58)
|   |   |   |   |   |   |   |   |   |   |   |   |   REGION >= 4 : opana (3/0)
|   |   |   |   |   |   |   EGEOLOC >= 45
|   |   |   |   |   |   |   |   EGEOLOC < 52.5
|   |   |   |   |   |   |   |   |   ADMTYP < 1.5
|   |   |   |   |   |   |   |   |   |   AGEGRP < 4.5
|   |   |   |   |   |   |   |   |   |   |   EGEOLOC < 48.5
|   |   |   |   |   |   |   |   |   |   |   |   EGEOLOC < 47.5
|   |   |   |   |   |   |   |   |   |   |   |   |   EGEOLOC < 46.5 : opana (5/2)
|   |   |   |   |   |   |   |   |   |   |   |   |   EGEOLOC >= 46.5 : butrans (40/19)
|   |   |   |   |   |   |   |   |   |   |   |   EGEOLOC >= 47.5 : opana (42/14)
|   |   |   |   |   |   |   |   |   |   |   EGEOLOC >= 48.5
|   |   |   |   |   |   |   |   |   |   |   |   REGION < 3.5 : butrans (204/87)
|   |   |   |   |   |   |   |   |   |   |   |   REGION >= 3.5 : butrans (30/14)
|   |   |   |   |   |   |   |   |   |   AGEGRP >= 4.5
|   |   |   |   |   |   |   |   |   |   |   EGEOLOC < 46.5 : opana (2/0)
|   |   |   |   |   |   |   |   |   |   |   EGEOLOC >= 46.5
|   |   |   |   |   |   |   |   |   |   |   |   REGION < 3.5
|   |   |   |   |   |   |   |   |   |   |   |   |   EGEOLOC < 47.5 : butrans (27/11)
|   |   |   |   |   |   |   |   |   |   |   |   |   EGEOLOC >= 47.5
|   |   |   |   |   |   |   |   |   |   |   |   |   |   EGEOLOC < 48.5 : butrans (28/13)
|   |   |   |   |   |   |   |   |   |   |   |   |   |   EGEOLOC >= 48.5 : butrans (183/86)
|   |   |   |   |   |   |   |   |   |   |   |   REGION >= 3.5 : opana (23/9)
|   |   |   |   |   |   |   |   |   ADMTYP >= 1.5
|   |   |   |   |   |   |   |   |   |   REGION < 2.5 : butrans (1/0)
|   |   |   |   |   |   |   |   |   |   REGION >= 2.5
|   |   |   |   |   |   |   |   |   |   |   REGION < 3.5
|   |   |   |   |   |   |   |   |   |   |   |   EGEOLOC < 47.5
|   |   |   |   |   |   |   |   |   |   |   |   |   EGEOLOC < 46.5
|   |   |   |   |   |   |   |   |   |   |   |   |   |   AGEGRP < 4.5 : butrans (10/2)
|   |   |   |   |   |   |   |   |   |   |   |   |   |   AGEGRP >= 4.5 : opana (6/2)
|   |   |   |   |   |   |   |   |   |   |   |   |   EGEOLOC >= 46.5
|   |   |   |   |   |   |   |   |   |   |   |   |   |   AGEGRP < 4.5 : butrans (45/21)
|   |   |   |   |   |   |   |   |   |   |   |   |   |   AGEGRP >= 4.5 : opana (29/12)
|   |   |   |   |   |   |   |   |   |   |   |   EGEOLOC >= 47.5
|   |   |   |   |   |   |   |   |   |   |   |   |   EGEOLOC < 48.5
|   |   |   |   |   |   |   |   |   |   |   |   |   |   AGEGRP < 4.5 : opana (51/21)
|   |   |   |   |   |   |   |   |   |   |   |   |   |   AGEGRP >= 4.5 : butrans (38/8)
|   |   |   |   |   |   |   |   |   |   |   |   |   EGEOLOC >= 48.5
|   |   |   |   |   |   |   |   |   |   |   |   |   |   AGEGRP < 4.5 : butrans (229/87)
|   |   |   |   |   |   |   |   |   |   |   |   |   |   AGEGRP >= 4.5 : butrans (213/100)
|   |   |   |   |   |   |   |   |   |   |   REGION >= 3.5
|   |   |   |   |   |   |   |   |   |   |   |   AGEGRP < 4.5 : butrans (16/4)
|   |   |   |   |   |   |   |   |   |   |   |   AGEGRP >= 4.5 : opana (23/9)
|   |   |   |   |   |   |   |   EGEOLOC >= 52.5
|   |   |   |   |   |   |   |   |   AGEGRP < 4.5
|   |   |   |   |   |   |   |   |   |   EGEOLOC < 57.5
|   |   |   |   |   |   |   |   |   |   |   REGION < 4.5
|   |   |   |   |   |   |   |   |   |   |   |   REGION < 2.5 : opana (2/0)
|   |   |   |   |   |   |   |   |   |   |   |   REGION >= 2.5
|   |   |   |   |   |   |   |   |   |   |   |   |   EGEOLOC < 54.5
|   |   |   |   |   |   |   |   |   |   |   |   |   |   EGEOLOC < 53.5
|   |   |   |   |   |   |   |   |   |   |   |   |   |   |   ADMTYP < 1.5 : opana (15/5)
|   |   |   |   |   |   |   |   |   |   |   |   |   |   |   ADMTYP >= 1.5 : opana (22/3)
|   |   |   |   |   |   |   |   |   |   |   |   |   |   EGEOLOC >= 53.5 : opana (20/10)
|   |   |   |   |   |   |   |   |   |   |   |   |   EGEOLOC >= 54.5
|   |   |   |   |   |   |   |   |   |   |   |   |   |   EGEOLOC < 55.5 : opana (3/0)
|   |   |   |   |   |   |   |   |   |   |   |   |   |   EGEOLOC >= 55.5
|   |   |   |   |   |   |   |   |   |   |   |   |   |   |   ADMTYP < 1.5
|   |   |   |   |   |   |   |   |   |   |   |   |   |   |   |   EGEOLOC < 56.5 : opana (32.45/4)
|   |   |   |   |   |   |   |   |   |   |   |   |   |   |   |   EGEOLOC >= 56.5 : opana (10/0)
|   |   |   |   |   |   |   |   |   |   |   |   |   |   |   ADMTYP >= 1.5
|   |   |   |   |   |   |   |   |   |   |   |   |   |   |   |   EGEOLOC < 56.5 : opana (26.41/4)
|   |   |   |   |   |   |   |   |   |   |   |   |   |   |   |   EGEOLOC >= 56.5 : opana (13/2)
|   |   |   |   |   |   |   |   |   |   |   REGION >= 4.5 : butrans (1/-0)
|   |   |   |   |   |   |   |   |   |   EGEOLOC >= 57.5
|   |   |   |   |   |   |   |   |   |   |   EGEOLOC < 60.5
|   |   |   |   |   |   |   |   |   |   |   |   ADMTYP < 1.5
|   |   |   |   |   |   |   |   |   |   |   |   |   EGEOLOC < 58.5 : opana (10/5)
|   |   |   |   |   |   |   |   |   |   |   |   |   EGEOLOC >= 58.5 : opana (1/0)
|   |   |   |   |   |   |   |   |   |   |   |   ADMTYP >= 1.5
|   |   |   |   |   |   |   |   |   |   |   |   |   EGEOLOC < 58.5 : butrans (9/0)
|   |   |   |   |   |   |   |   |   |   |   |   |   EGEOLOC >= 58.5 : butrans (5/1)
|   |   |   |   |   |   |   |   |   |   |   EGEOLOC >= 60.5
|   |   |   |   |   |   |   |   |   |   |   |   ADMTYP < 1.5
|   |   |   |   |   |   |   |   |   |   |   |   |   EGEOLOC < 64.5
|   |   |   |   |   |   |   |   |   |   |   |   |   |   EGEOLOC < 63 : butrans (109/54)
|   |   |   |   |   |   |   |   |   |   |   |   |   |   EGEOLOC >= 63 : butrans (11/5)
|   |   |   |   |   |   |   |   |   |   |   |   |   EGEOLOC >= 64.5 : opana (25/7)
|   |   |   |   |   |   |   |   |   |   |   |   ADMTYP >= 1.5
|   |   |   |   |   |   |   |   |   |   |   |   |   EGEOLOC < 63 : opana (155/57)
|   |   |   |   |   |   |   |   |   |   |   |   |   EGEOLOC >= 63
|   |   |   |   |   |   |   |   |   |   |   |   |   |   EGEOLOC < 64.5 : opana (7/2)
|   |   |   |   |   |   |   |   |   |   |   |   |   |   EGEOLOC >= 64.5 : opana (16/5)
|   |   |   |   |   |   |   |   |   AGEGRP >= 4.5
|   |   |   |   |   |   |   |   |   |   REGION < 3.5 : opana (4/0)
|   |   |   |   |   |   |   |   |   |   REGION >= 3.5
|   |   |   |   |   |   |   |   |   |   |   EGEOLOC < 57.5
|   |   |   |   |   |   |   |   |   |   |   |   EGEOLOC < 55.5
|   |   |   |   |   |   |   |   |   |   |   |   |   ADMTYP < 1.5
|   |   |   |   |   |   |   |   |   |   |   |   |   |   EGEOLOC < 53.5 : opana (24/8)
|   |   |   |   |   |   |   |   |   |   |   |   |   |   EGEOLOC >= 53.5 : butrans (22/4)
|   |   |   |   |   |   |   |   |   |   |   |   |   ADMTYP >= 1.5
|   |   |   |   |   |   |   |   |   |   |   |   |   |   EGEOLOC < 53.5
|   |   |   |   |   |   |   |   |   |   |   |   |   |   |   REGION < 4.5 : opana (28/8)
|   |   |   |   |   |   |   |   |   |   |   |   |   |   |   REGION >= 4.5 : butrans (1/0)
|   |   |   |   |   |   |   |   |   |   |   |   |   |   EGEOLOC >= 53.5
|   |   |   |   |   |   |   |   |   |   |   |   |   |   |   EGEOLOC < 54.5 : butrans (16/5)
|   |   |   |   |   |   |   |   |   |   |   |   |   |   |   EGEOLOC >= 54.5 : butrans (1/0)
|   |   |   |   |   |   |   |   |   |   |   |   EGEOLOC >= 55.5
|   |   |   |   |   |   |   |   |   |   |   |   |   EGEOLOC < 56.5
|   |   |   |   |   |   |   |   |   |   |   |   |   |   ADMTYP < 1.5 : opana (38/10)
|   |   |   |   |   |   |   |   |   |   |   |   |   |   ADMTYP >= 1.5 : opana (38/4)
|   |   |   |   |   |   |   |   |   |   |   |   |   EGEOLOC >= 56.5
|   |   |   |   |   |   |   |   |   |   |   |   |   |   ADMTYP < 1.5 : opana (12/5)
|   |   |   |   |   |   |   |   |   |   |   |   |   |   ADMTYP >= 1.5 : opana (23/6)
|   |   |   |   |   |   |   |   |   |   |   EGEOLOC >= 57.5
|   |   |   |   |   |   |   |   |   |   |   |   EGEOLOC < 64.5
|   |   |   |   |   |   |   |   |   |   |   |   |   ADMTYP < 1.5
|   |   |   |   |   |   |   |   |   |   |   |   |   |   EGEOLOC < 60.5
|   |   |   |   |   |   |   |   |   |   |   |   |   |   |   EGEOLOC < 58.5 : butrans (7/2)
|   |   |   |   |   |   |   |   |   |   |   |   |   |   |   EGEOLOC >= 58.5 : butrans (2/0)
|   |   |   |   |   |   |   |   |   |   |   |   |   |   EGEOLOC >= 60.5
|   |   |   |   |   |   |   |   |   |   |   |   |   |   |   EGEOLOC < 63 : butrans (128.69/58.69)
|   |   |   |   |   |   |   |   |   |   |   |   |   |   |   EGEOLOC >= 63 : butrans (8/3)
|   |   |   |   |   |   |   |   |   |   |   |   |   ADMTYP >= 1.5
|   |   |   |   |   |   |   |   |   |   |   |   |   |   EGEOLOC < 63.5
|   |   |   |   |   |   |   |   |   |   |   |   |   |   |   EGEOLOC < 62.5
|   |   |   |   |   |   |   |   |   |   |   |   |   |   |   |   EGEOLOC < 60 : butrans (10/3)
|   |   |   |   |   |   |   |   |   |   |   |   |   |   |   |   EGEOLOC >= 60 : butrans (186.03/88.03)
|   |   |   |   |   |   |   |   |   |   |   |   |   |   |   EGEOLOC >= 62.5 : butrans (4/-0)
|   |   |   |   |   |   |   |   |   |   |   |   |   |   EGEOLOC >= 63.5 : opana (17/6)
|   |   |   |   |   |   |   |   |   |   |   |   EGEOLOC >= 64.5
|   |   |   |   |   |   |   |   |   |   |   |   |   ADMTYP < 1.5 : butrans (42/15)
|   |   |   |   |   |   |   |   |   |   |   |   |   ADMTYP >= 1.5 : butrans (48/9)
|   |   |   |   ADMTYP >= 2.5
|   |   |   |   |   REGION < 3.5
|   |   |   |   |   |   REGION < 1.5
|   |   |   |   |   |   |   AGEGRP < 2.5
|   |   |   |   |   |   |   |   EGEOLOC < 11.5
|   |   |   |   |   |   |   |   |   EGEOLOC < 5.5
|   |   |   |   |   |   |   |   |   |   ADMTYP < 4.5
|   |   |   |   |   |   |   |   |   |   |   EGEOLOC < 4.5 : butrans (25/8)
|   |   |   |   |   |   |   |   |   |   |   EGEOLOC >= 4.5 : opana (1/0)
|   |   |   |   |   |   |   |   |   |   ADMTYP >= 4.5 : opana (1/0)
|   |   |   |   |   |   |   |   |   EGEOLOC >= 5.5
|   |   |   |   |   |   |   |   |   |   EGEOLOC < 6.5 : butrans (3/0)
|   |   |   |   |   |   |   |   |   |   EGEOLOC >= 6.5
|   |   |   |   |   |   |   |   |   |   |   EGEOLOC < 9 : opana (1/0)
|   |   |   |   |   |   |   |   |   |   |   EGEOLOC >= 9
|   |   |   |   |   |   |   |   |   |   |   |   AGEGRP < 1.5 : butrans (3/0)
|   |   |   |   |   |   |   |   |   |   |   |   AGEGRP >= 1.5 : butrans (50/16)
|   |   |   |   |   |   |   |   EGEOLOC >= 11.5
|   |   |   |   |   |   |   |   |   EGEOLOC < 12.5 : opana (52.7/12.14)
|   |   |   |   |   |   |   |   |   EGEOLOC >= 12.5
|   |   |   |   |   |   |   |   |   |   EGEOLOC < 23 : opana (52/19)
|   |   |   |   |   |   |   |   |   |   EGEOLOC >= 23 : opana (2/0)
|   |   |   |   |   |   |   AGEGRP >= 2.5
|   |   |   |   |   |   |   |   EGEOLOC < 9.5
|   |   |   |   |   |   |   |   |   EGEOLOC < 2.5 : butrans (2/0)
|   |   |   |   |   |   |   |   |   EGEOLOC >= 2.5
|   |   |   |   |   |   |   |   |   |   ADMTYP < 3.5 : opana (1/0)
|   |   |   |   |   |   |   |   |   |   ADMTYP >= 3.5
|   |   |   |   |   |   |   |   |   |   |   AGEGRP < 3.5
|   |   |   |   |   |   |   |   |   |   |   |   EGEOLOC < 5 : opana (2/0)
|   |   |   |   |   |   |   |   |   |   |   |   EGEOLOC >= 5 : opana (3/1)
|   |   |   |   |   |   |   |   |   |   |   AGEGRP >= 3.5
|   |   |   |   |   |   |   |   |   |   |   |   AGEGRP < 4.5
|   |   |   |   |   |   |   |   |   |   |   |   |   EGEOLOC < 5.5 : opana (4/2)
|   |   |   |   |   |   |   |   |   |   |   |   |   EGEOLOC >= 5.5 : butrans (3/0)
|   |   |   |   |   |   |   |   |   |   |   |   AGEGRP >= 4.5
|   |   |   |   |   |   |   |   |   |   |   |   |   EGEOLOC < 5.5
|   |   |   |   |   |   |   |   |   |   |   |   |   |   EGEOLOC < 4.5 : butrans (3/1)
|   |   |   |   |   |   |   |   |   |   |   |   |   |   EGEOLOC >= 4.5 : opana (12/4)
|   |   |   |   |   |   |   |   |   |   |   |   |   EGEOLOC >= 5.5 : butrans (1/0)
|   |   |   |   |   |   |   |   EGEOLOC >= 9.5
|   |   |   |   |   |   |   |   |   AGEGRP < 4.5
|   |   |   |   |   |   |   |   |   |   EGEOLOC < 12.5
|   |   |   |   |   |   |   |   |   |   |   EGEOLOC < 11.5
|   |   |   |   |   |   |   |   |   |   |   |   AGEGRP < 3.5 : opana (7/1)
|   |   |   |   |   |   |   |   |   |   |   |   AGEGRP >= 3.5 : opana (14.14/7)
|   |   |   |   |   |   |   |   |   |   |   EGEOLOC >= 11.5
|   |   |   |   |   |   |   |   |   |   |   |   ADMTYP < 4.5
|   |   |   |   |   |   |   |   |   |   |   |   |   AGEGRP < 3.5 : opana (36/12)
|   |   |   |   |   |   |   |   |   |   |   |   |   AGEGRP >= 3.5 : opana (11.67/2)
|   |   |   |   |   |   |   |   |   |   |   |   ADMTYP >= 4.5
|   |   |   |   |   |   |   |   |   |   |   |   |   AGEGRP < 3.5 : opana (2/1)
|   |   |   |   |   |   |   |   |   |   |   |   |   AGEGRP >= 3.5 : opana (0.03/0)
|   |   |   |   |   |   |   |   |   |   EGEOLOC >= 12.5
|   |   |   |   |   |   |   |   |   |   |   AGEGRP < 3.5
|   |   |   |   |   |   |   |   |   |   |   |   EGEOLOC < 37.5 : opana (16/2)
|   |   |   |   |   |   |   |   |   |   |   |   EGEOLOC >= 37.5 : opana (6/0)
|   |   |   |   |   |   |   |   |   |   |   AGEGRP >= 3.5 : opana (34/4)
|   |   |   |   |   |   |   |   |   AGEGRP >= 4.5
|   |   |   |   |   |   |   |   |   |   EGEOLOC < 11.5 : opana (3/0)
|   |   |   |   |   |   |   |   |   |   EGEOLOC >= 11.5
|   |   |   |   |   |   |   |   |   |   |   EGEOLOC < 12.5 : opana (20.28/5.28)
|   |   |   |   |   |   |   |   |   |   |   EGEOLOC >= 12.5 : opana (26/10)
|   |   |   |   |   |   REGION >= 1.5
|   |   |   |   |   |   |   EGEOLOC < 47.5
|   |   |   |   |   |   |   |   EGEOLOC < 30
|   |   |   |   |   |   |   |   |   AGEGRP < 1.5 : butrans (3/0)
|   |   |   |   |   |   |   |   |   AGEGRP >= 1.5
|   |   |   |   |   |   |   |   |   |   EGEOLOC < 25.5
|   |   |   |   |   |   |   |   |   |   |   REGION < 2.5
|   |   |   |   |   |   |   |   |   |   |   |   EGEOLOC < 17.5
|   |   |   |   |   |   |   |   |   |   |   |   |   AGEGRP < 3.5
|   |   |   |   |   |   |   |   |   |   |   |   |   |   AGEGRP < 2.5
|   |   |   |   |   |   |   |   |   |   |   |   |   |   |   EGEOLOC < 16.5 : opana (22/4)
|   |   |   |   |   |   |   |   |   |   |   |   |   |   |   EGEOLOC >= 16.5 : butrans (24/11)
|   |   |   |   |   |   |   |   |   |   |   |   |   |   AGEGRP >= 2.5
|   |   |   |   |   |   |   |   |   |   |   |   |   |   |   EGEOLOC < 16.5 : butrans (11.14/4.14)
|   |   |   |   |   |   |   |   |   |   |   |   |   |   |   EGEOLOC >= 16.5 : opana (21.14/8)
|   |   |   |   |   |   |   |   |   |   |   |   |   AGEGRP >= 3.5
|   |   |   |   |   |   |   |   |   |   |   |   |   |   EGEOLOC < 16.5
|   |   |   |   |   |   |   |   |   |   |   |   |   |   |   AGEGRP < 4.5 : butrans (17/6)
|   |   |   |   |   |   |   |   |   |   |   |   |   |   |   AGEGRP >= 4.5
|   |   |   |   |   |   |   |   |   |   |   |   |   |   |   |   EGEOLOC < 14 : butrans (1/0)
|   |   |   |   |   |   |   |   |   |   |   |   |   |   |   |   EGEOLOC >= 14 : butrans (14/4)
|   |   |   |   |   |   |   |   |   |   |   |   |   |   EGEOLOC >= 16.5
|   |   |   |   |   |   |   |   |   |   |   |   |   |   |   AGEGRP < 4.5 : butrans (12/4)
|   |   |   |   |   |   |   |   |   |   |   |   |   |   |   AGEGRP >= 4.5 : opana (11/2)
|   |   |   |   |   |   |   |   |   |   |   |   EGEOLOC >= 17.5
|   |   |   |   |   |   |   |   |   |   |   |   |   EGEOLOC < 24.5
|   |   |   |   |   |   |   |   |   |   |   |   |   |   EGEOLOC < 23.5
|   |   |   |   |   |   |   |   |   |   |   |   |   |   |   EGEOLOC < 18.5
|   |   |   |   |   |   |   |   |   |   |   |   |   |   |   |   AGEGRP < 4.5
|   |   |   |   |   |   |   |   |   |   |   |   |   |   |   |   |   AGEGRP < 2.5 : opana (34/15)
|   |   |   |   |   |   |   |   |   |   |   |   |   |   |   |   |   AGEGRP >= 2.5
|   |   |   |   |   |   |   |   |   |   |   |   |   |   |   |   |   |   AGEGRP < 3.5 : opana (10/3)
|   |   |   |   |   |   |   |   |   |   |   |   |   |   |   |   |   |   AGEGRP >= 3.5 : opana (19.14/7.14)
|   |   |   |   |   |   |   |   |   |   |   |   |   |   |   |   AGEGRP >= 4.5 : opana (12/1)
|   |   |   |   |   |   |   |   |   |   |   |   |   |   |   EGEOLOC >= 18.5
|   |   |   |   |   |   |   |   |   |   |   |   |   |   |   |   AGEGRP < 3.5
|   |   |   |   |   |   |   |   |   |   |   |   |   |   |   |   |   AGEGRP < 2.5
|   |   |   |   |   |   |   |   |   |   |   |   |   |   |   |   |   |   EGEOLOC < 21.5
|   |   |   |   |   |   |   |   |   |   |   |   |   |   |   |   |   |   |   EGEOLOC < 19.5 : opana (14/6)
|   |   |   |   |   |   |   |   |   |   |   |   |   |   |   |   |   |   |   EGEOLOC >= 19.5 : opana (1/0)
|   |   |   |   |   |   |   |   |   |   |   |   |   |   |   |   |   |   EGEOLOC >= 21.5 : butrans (1/0)
|   |   |   |   |   |   |   |   |   |   |   |   |   |   |   |   |   AGEGRP >= 2.5
|   |   |   |   |   |   |   |   |   |   |   |   |   |   |   |   |   |   EGEOLOC < 21
|   |   |   |   |   |   |   |   |   |   |   |   |   |   |   |   |   |   |   EGEOLOC < 19.5 : opana (24/3)
|   |   |   |   |   |   |   |   |   |   |   |   |   |   |   |   |   |   |   EGEOLOC >= 19.5 : opana (3/1)
|   |   |   |   |   |   |   |   |   |   |   |   |   |   |   |   |   |   EGEOLOC >= 21 : opana (3/0)
|   |   |   |   |   |   |   |   |   |   |   |   |   |   |   |   AGEGRP >= 3.5
|   |   |   |   |   |   |   |   |   |   |   |   |   |   |   |   |   EGEOLOC < 19.5
|   |   |   |   |   |   |   |   |   |   |   |   |   |   |   |   |   |   AGEGRP < 4.5 : butrans (24/8)
|   |   |   |   |   |   |   |   |   |   |   |   |   |   |   |   |   |   AGEGRP >= 4.5 : opana (14/4)
|   |   |   |   |   |   |   |   |   |   |   |   |   |   |   |   |   EGEOLOC >= 19.5
|   |   |   |   |   |   |   |   |   |   |   |   |   |   |   |   |   |   AGEGRP < 4.5
|   |   |   |   |   |   |   |   |   |   |   |   |   |   |   |   |   |   |   EGEOLOC < 21 : opana (3/1)
|   |   |   |   |   |   |   |   |   |   |   |   |   |   |   |   |   |   |   EGEOLOC >= 21 : opana (6/3)
|   |   |   |   |   |   |   |   |   |   |   |   |   |   |   |   |   |   AGEGRP >= 4.5 : butrans (1/0)
|   |   |   |   |   |   |   |   |   |   |   |   |   |   EGEOLOC >= 23.5 : opana (2/0)
|   |   |   |   |   |   |   |   |   |   |   |   |   EGEOLOC >= 24.5
|   |   |   |   |   |   |   |   |   |   |   |   |   |   AGEGRP < 2.5 : butrans (11/2)
|   |   |   |   |   |   |   |   |   |   |   |   |   |   AGEGRP >= 2.5
|   |   |   |   |   |   |   |   |   |   |   |   |   |   |   AGEGRP < 4.5
|   |   |   |   |   |   |   |   |   |   |   |   |   |   |   |   AGEGRP < 3.5 : opana (11/2)
|   |   |   |   |   |   |   |   |   |   |   |   |   |   |   |   AGEGRP >= 3.5 : opana (9/0)
|   |   |   |   |   |   |   |   |   |   |   |   |   |   |   AGEGRP >= 4.5 : butrans (5/1)
|   |   |   |   |   |   |   |   |   |   |   REGION >= 2.5 : butrans (3/0)
|   |   |   |   |   |   |   |   |   |   EGEOLOC >= 25.5
|   |   |   |   |   |   |   |   |   |   |   EGEOLOC < 27
|   |   |   |   |   |   |   |   |   |   |   |   AGEGRP < 3.5 : butrans (8/0)
|   |   |   |   |   |   |   |   |   |   |   |   AGEGRP >= 3.5 : opana (3/0)
|   |   |   |   |   |   |   |   |   |   |   EGEOLOC >= 27 : butrans (3/0)
|   |   |   |   |   |   |   |   EGEOLOC >= 30
|   |   |   |   |   |   |   |   |   AGEGRP < 2.5
|   |   |   |   |   |   |   |   |   |   EGEOLOC < 32.5 : butrans (10/4)
|   |   |   |   |   |   |   |   |   |   EGEOLOC >= 32.5
|   |   |   |   |   |   |   |   |   |   |   ADMTYP < 4.5
|   |   |   |   |   |   |   |   |   |   |   |   EGEOLOC < 37.5
|   |   |   |   |   |   |   |   |   |   |   |   |   EGEOLOC < 33.5 : opana (64/11)
|   |   |   |   |   |   |   |   |   |   |   |   |   EGEOLOC >= 33.5
|   |   |   |   |   |   |   |   |   |   |   |   |   |   EGEOLOC < 34.5 : opana (13/6)
|   |   |   |   |   |   |   |   |   |   |   |   |   |   EGEOLOC >= 34.5
|   |   |   |   |   |   |   |   |   |   |   |   |   |   |   EGEOLOC < 35.5 : opana (15/2)
|   |   |   |   |   |   |   |   |   |   |   |   |   |   |   EGEOLOC >= 35.5
|   |   |   |   |   |   |   |   |   |   |   |   |   |   |   |   EGEOLOC < 36.5 : opana (6/1)
|   |   |   |   |   |   |   |   |   |   |   |   |   |   |   |   EGEOLOC >= 36.5 : opana (26/5)
|   |   |   |   |   |   |   |   |   |   |   |   EGEOLOC >= 37.5
|   |   |   |   |   |   |   |   |   |   |   |   |   EGEOLOC < 42.5
|   |   |   |   |   |   |   |   |   |   |   |   |   |   EGEOLOC < 39.5 : butrans (1/0)
|   |   |   |   |   |   |   |   |   |   |   |   |   |   EGEOLOC >= 39.5 : butrans (20/5)
|   |   |   |   |   |   |   |   |   |   |   |   |   EGEOLOC >= 42.5
|   |   |   |   |   |   |   |   |   |   |   |   |   |   EGEOLOC < 46.5
|   |   |   |   |   |   |   |   |   |   |   |   |   |   |   EGEOLOC < 45
|   |   |   |   |   |   |   |   |   |   |   |   |   |   |   |   EGEOLOC < 43.5 : opana (3/1)
|   |   |   |   |   |   |   |   |   |   |   |   |   |   |   |   EGEOLOC >= 43.5 : opana (54/12)
|   |   |   |   |   |   |   |   |   |   |   |   |   |   |   EGEOLOC >= 45 : butrans (1/0)
|   |   |   |   |   |   |   |   |   |   |   |   |   |   EGEOLOC >= 46.5 : opana (8/1)
|   |   |   |   |   |   |   |   |   |   |   ADMTYP >= 4.5 : opana (1/0)
|   |   |   |   |   |   |   |   |   AGEGRP >= 2.5
|   |   |   |   |   |   |   |   |   |   AGEGRP < 4.5
|   |   |   |   |   |   |   |   |   |   |   EGEOLOC < 32.5 : opana (12/1)
|   |   |   |   |   |   |   |   |   |   |   EGEOLOC >= 32.5
|   |   |   |   |   |   |   |   |   |   |   |   ADMTYP < 4.5
|   |   |   |   |   |   |   |   |   |   |   |   |   EGEOLOC < 45
|   |   |   |   |   |   |   |   |   |   |   |   |   |   EGEOLOC < 37.5
|   |   |   |   |   |   |   |   |   |   |   |   |   |   |   AGEGRP < 3.5
|   |   |   |   |   |   |   |   |   |   |   |   |   |   |   |   EGEOLOC < 36.5
|   |   |   |   |   |   |   |   |   |   |   |   |   |   |   |   |   EGEOLOC < 33.5 : opana (30/7)
|   |   |   |   |   |   |   |   |   |   |   |   |   |   |   |   |   EGEOLOC >= 33.5
|   |   |   |   |   |   |   |   |   |   |   |   |   |   |   |   |   |   EGEOLOC < 35.5
|   |   |   |   |   |   |   |   |   |   |   |   |   |   |   |   |   |   |   EGEOLOC < 34.5 : opana (14.69/6)
|   |   |   |   |   |   |   |   |   |   |   |   |   |   |   |   |   |   |   EGEOLOC >= 34.5 : opana (5/2)
|   |   |   |   |   |   |   |   |   |   |   |   |   |   |   |   |   |   EGEOLOC >= 35.5 : opana (7/2)
|   |   |   |   |   |   |   |   |   |   |   |   |   |   |   |   EGEOLOC >= 36.5 : butrans (16/4)
|   |   |   |   |   |   |   |   |   |   |   |   |   |   |   AGEGRP >= 3.5
|   |   |   |   |   |   |   |   |   |   |   |   |   |   |   |   EGEOLOC < 34.5
|   |   |   |   |   |   |   |   |   |   |   |   |   |   |   |   |   EGEOLOC < 33.5 : opana (25.14/10.14)
|   |   |   |   |   |   |   |   |   |   |   |   |   |   |   |   |   EGEOLOC >= 33.5 : butrans (20/9)
|   |   |   |   |   |   |   |   |   |   |   |   |   |   |   |   EGEOLOC >= 34.5
|   |   |   |   |   |   |   |   |   |   |   |   |   |   |   |   |   EGEOLOC < 35.5 : opana (5/1)
|   |   |   |   |   |   |   |   |   |   |   |   |   |   |   |   |   EGEOLOC >= 35.5
|   |   |   |   |   |   |   |   |   |   |   |   |   |   |   |   |   |   EGEOLOC < 36.5 : opana (21/9)
|   |   |   |   |   |   |   |   |   |   |   |   |   |   |   |   |   |   EGEOLOC >= 36.5 : opana (14/4)
|   |   |   |   |   |   |   |   |   |   |   |   |   |   EGEOLOC >= 37.5
|   |   |   |   |   |   |   |   |   |   |   |   |   |   |   AGEGRP < 3.5
|   |   |   |   |   |   |   |   |   |   |   |   |   |   |   |   EGEOLOC < 40
|   |   |   |   |   |   |   |   |   |   |   |   |   |   |   |   |   EGEOLOC < 38.5 : opana (11/1)
|   |   |   |   |   |   |   |   |   |   |   |   |   |   |   |   |   EGEOLOC >= 38.5 : opana (7/1)
|   |   |   |   |   |   |   |   |   |   |   |   |   |   |   |   EGEOLOC >= 40
|   |   |   |   |   |   |   |   |   |   |   |   |   |   |   |   |   EGEOLOC < 41.5 : opana (5/2)
|   |   |   |   |   |   |   |   |   |   |   |   |   |   |   |   |   EGEOLOC >= 41.5
|   |   |   |   |   |   |   |   |   |   |   |   |   |   |   |   |   |   EGEOLOC < 43.5 : opana (12/3)
|   |   |   |   |   |   |   |   |   |   |   |   |   |   |   |   |   |   EGEOLOC >= 43.5 : opana (22/5)
|   |   |   |   |   |   |   |   |   |   |   |   |   |   |   AGEGRP >= 3.5
|   |   |   |   |   |   |   |   |   |   |   |   |   |   |   |   EGEOLOC < 42.5
|   |   |   |   |   |   |   |   |   |   |   |   |   |   |   |   |   EGEOLOC < 41.5
|   |   |   |   |   |   |   |   |   |   |   |   |   |   |   |   |   |   EGEOLOC < 38.5 : opana (7/3)
|   |   |   |   |   |   |   |   |   |   |   |   |   |   |   |   |   |   EGEOLOC >= 38.5
|   |   |   |   |   |   |   |   |   |   |   |   |   |   |   |   |   |   |   EGEOLOC < 40 : opana (1/0)
|   |   |   |   |   |   |   |   |   |   |   |   |   |   |   |   |   |   |   EGEOLOC >= 40 : opana (3/1)
|   |   |   |   |   |   |   |   |   |   |   |   |   |   |   |   |   EGEOLOC >= 41.5 : butrans (8/1)
|   |   |   |   |   |   |   |   |   |   |   |   |   |   |   |   EGEOLOC >= 42.5
|   |   |   |   |   |   |   |   |   |   |   |   |   |   |   |   |   EGEOLOC < 43.5 : opana (4/0)
|   |   |   |   |   |   |   |   |   |   |   |   |   |   |   |   |   EGEOLOC >= 43.5 : opana (37.28/13)
|   |   |   |   |   |   |   |   |   |   |   |   |   EGEOLOC >= 45
|   |   |   |   |   |   |   |   |   |   |   |   |   |   EGEOLOC < 46.5
|   |   |   |   |   |   |   |   |   |   |   |   |   |   |   AGEGRP < 3.5 : opana (1/0)
|   |   |   |   |   |   |   |   |   |   |   |   |   |   |   AGEGRP >= 3.5 : butrans (1/0)
|   |   |   |   |   |   |   |   |   |   |   |   |   |   EGEOLOC >= 46.5
|   |   |   |   |   |   |   |   |   |   |   |   |   |   |   AGEGRP < 3.5 : butrans (5/1)
|   |   |   |   |   |   |   |   |   |   |   |   |   |   |   AGEGRP >= 3.5 : opana (8/3)
|   |   |   |   |   |   |   |   |   |   |   |   ADMTYP >= 4.5 : butrans (1/0)
|   |   |   |   |   |   |   |   |   |   AGEGRP >= 4.5
|   |   |   |   |   |   |   |   |   |   |   ADMTYP < 4.5
|   |   |   |   |   |   |   |   |   |   |   |   EGEOLOC < 43
|   |   |   |   |   |   |   |   |   |   |   |   |   EGEOLOC < 33.5
|   |   |   |   |   |   |   |   |   |   |   |   |   |   EGEOLOC < 32.5 : opana (2/1)
|   |   |   |   |   |   |   |   |   |   |   |   |   |   EGEOLOC >= 32.5 : opana (14.14/2)
|   |   |   |   |   |   |   |   |   |   |   |   |   EGEOLOC >= 33.5
|   |   |   |   |   |   |   |   |   |   |   |   |   |   EGEOLOC < 37.5
|   |   |   |   |   |   |   |   |   |   |   |   |   |   |   EGEOLOC < 35.5
|   |   |   |   |   |   |   |   |   |   |   |   |   |   |   |   EGEOLOC < 34.5 : opana (23.14/10)
|   |   |   |   |   |   |   |   |   |   |   |   |   |   |   |   EGEOLOC >= 34.5 : butrans (3/-0)
|   |   |   |   |   |   |   |   |   |   |   |   |   |   |   EGEOLOC >= 35.5
|   |   |   |   |   |   |   |   |   |   |   |   |   |   |   |   EGEOLOC < 36.5 : opana (7/2)
|   |   |   |   |   |   |   |   |   |   |   |   |   |   |   |   EGEOLOC >= 36.5 : opana (10/5)
|   |   |   |   |   |   |   |   |   |   |   |   |   |   EGEOLOC >= 37.5
|   |   |   |   |   |   |   |   |   |   |   |   |   |   |   EGEOLOC < 39.5 : opana (4/0)
|   |   |   |   |   |   |   |   |   |   |   |   |   |   |   EGEOLOC >= 39.5
|   |   |   |   |   |   |   |   |   |   |   |   |   |   |   |   EGEOLOC < 41.5 : opana (6/3)
|   |   |   |   |   |   |   |   |   |   |   |   |   |   |   |   EGEOLOC >= 41.5 : opana (3/1)
|   |   |   |   |   |   |   |   |   |   |   |   EGEOLOC >= 43
|   |   |   |   |   |   |   |   |   |   |   |   |   EGEOLOC < 45.5 : opana (27/4)
|   |   |   |   |   |   |   |   |   |   |   |   |   EGEOLOC >= 45.5 : opana (6/0)
|   |   |   |   |   |   |   |   |   |   |   ADMTYP >= 4.5 : opana (1/0)
|   |   |   |   |   |   |   EGEOLOC >= 47.5
|   |   |   |   |   |   |   |   EGEOLOC < 48.5
|   |   |   |   |   |   |   |   |   AGEGRP < 4.5
|   |   |   |   |   |   |   |   |   |   AGEGRP < 2.5 : butrans (11/2)
|   |   |   |   |   |   |   |   |   |   AGEGRP >= 2.5
|   |   |   |   |   |   |   |   |   |   |   ADMTYP < 4.5
|   |   |   |   |   |   |   |   |   |   |   |   AGEGRP < 3.5 : opana (3/0)
|   |   |   |   |   |   |   |   |   |   |   |   AGEGRP >= 3.5 : butrans (6/1)
|   |   |   |   |   |   |   |   |   |   |   ADMTYP >= 4.5 : opana (1/0)
|   |   |   |   |   |   |   |   |   AGEGRP >= 4.5 : butrans (4/0)
|   |   |   |   |   |   |   |   EGEOLOC >= 48.5
|   |   |   |   |   |   |   |   |   EGEOLOC < 51
|   |   |   |   |   |   |   |   |   |   AGEGRP < 3.5
|   |   |   |   |   |   |   |   |   |   |   REGION < 2.5 : butrans (1/0)
|   |   |   |   |   |   |   |   |   |   |   REGION >= 2.5
|   |   |   |   |   |   |   |   |   |   |   |   ADMTYP < 4.5
|   |   |   |   |   |   |   |   |   |   |   |   |   AGEGRP < 2.5 : butrans (61/27)
|   |   |   |   |   |   |   |   |   |   |   |   |   AGEGRP >= 2.5 : opana (27/13)
|   |   |   |   |   |   |   |   |   |   |   |   ADMTYP >= 4.5 : butrans (1/0)
|   |   |   |   |   |   |   |   |   |   AGEGRP >= 3.5
|   |   |   |   |   |   |   |   |   |   |   AGEGRP < 4.5 : butrans (48/16)
|   |   |   |   |   |   |   |   |   |   |   AGEGRP >= 4.5
|   |   |   |   |   |   |   |   |   |   |   |   ADMTYP < 4.5 : butrans (28/11)
|   |   |   |   |   |   |   |   |   |   |   |   ADMTYP >= 4.5 : opana (2/0)
|   |   |   |   |   |   |   |   |   EGEOLOC >= 51 : opana (1/0)
|   |   |   |   |   REGION >= 3.5
|   |   |   |   |   |   EGEOLOC < 55.5
|   |   |   |   |   |   |   EGEOLOC < 52.5
|   |   |   |   |   |   |   |   AGEGRP < 4.5
|   |   |   |   |   |   |   |   |   AGEGRP < 1.5 : butrans (1/0)
|   |   |   |   |   |   |   |   |   AGEGRP >= 1.5
|   |   |   |   |   |   |   |   |   |   EGEOLOC < 22
|   |   |   |   |   |   |   |   |   |   |   REGION < 4.5 : butrans (2/0)
|   |   |   |   |   |   |   |   |   |   |   REGION >= 4.5
|   |   |   |   |   |   |   |   |   |   |   |   EGEOLOC < 15
|   |   |   |   |   |   |   |   |   |   |   |   |   EGEOLOC < 7
|   |   |   |   |   |   |   |   |   |   |   |   |   |   AGEGRP < 2.5 : butrans (1/0)
|   |   |   |   |   |   |   |   |   |   |   |   |   |   AGEGRP >= 2.5
|   |   |   |   |   |   |   |   |   |   |   |   |   |   |   AGEGRP < 3.5 : opana (6/3)
|   |   |   |   |   |   |   |   |   |   |   |   |   |   |   AGEGRP >= 3.5 : opana (11.14/5)
|   |   |   |   |   |   |   |   |   |   |   |   |   EGEOLOC >= 7 : opana (1/0)
|   |   |   |   |   |   |   |   |   |   |   |   EGEOLOC >= 15 : butrans (1/0)
|   |   |   |   |   |   |   |   |   |   EGEOLOC >= 22
|   |   |   |   |   |   |   |   |   |   |   REGION < 4.5
|   |   |   |   |   |   |   |   |   |   |   |   AGEGRP < 2.5 : opana (11/5)
|   |   |   |   |   |   |   |   |   |   |   |   AGEGRP >= 2.5
|   |   |   |   |   |   |   |   |   |   |   |   |   AGEGRP < 3.5
|   |   |   |   |   |   |   |   |   |   |   |   |   |   EGEOLOC < 39.5 : opana (2/0)
|   |   |   |   |   |   |   |   |   |   |   |   |   |   EGEOLOC >= 39.5 : opana (4/1)
|   |   |   |   |   |   |   |   |   |   |   |   |   AGEGRP >= 3.5 : opana (5/2)
|   |   |   |   |   |   |   |   |   |   |   REGION >= 4.5 : opana (2/0)
|   |   |   |   |   |   |   |   AGEGRP >= 4.5
|   |   |   |   |   |   |   |   |   REGION < 4.5 : opana (8/1)
|   |   |   |   |   |   |   |   |   REGION >= 4.5
|   |   |   |   |   |   |   |   |   |   EGEOLOC < 9 : butrans (5/2)
|   |   |   |   |   |   |   |   |   |   EGEOLOC >= 9 : opana (4/0)
|   |   |   |   |   |   |   EGEOLOC >= 52.5
|   |   |   |   |   |   |   |   EGEOLOC < 54.5
|   |   |   |   |   |   |   |   |   EGEOLOC < 53.5
|   |   |   |   |   |   |   |   |   |   AGEGRP < 4.5
|   |   |   |   |   |   |   |   |   |   |   AGEGRP < 2.5 : butrans (5/1)
|   |   |   |   |   |   |   |   |   |   |   AGEGRP >= 2.5
|   |   |   |   |   |   |   |   |   |   |   |   AGEGRP < 3.5 : opana (2/0)
|   |   |   |   |   |   |   |   |   |   |   |   AGEGRP >= 3.5 : opana (3/1)
|   |   |   |   |   |   |   |   |   |   AGEGRP >= 4.5 : butrans (6/0)
|   |   |   |   |   |   |   |   |   EGEOLOC >= 53.5
|   |   |   |   |   |   |   |   |   |   AGEGRP < 2.5 : opana (7/2)
|   |   |   |   |   |   |   |   |   |   AGEGRP >= 2.5
|   |   |   |   |   |   |   |   |   |   |   AGEGRP < 3.5 : butrans (10/2)
|   |   |   |   |   |   |   |   |   |   |   AGEGRP >= 3.5 : butrans (3/0)
|   |   |   |   |   |   |   |   EGEOLOC >= 54.5 : butrans (6.56/0)
|   |   |   |   |   |   EGEOLOC >= 55.5
|   |   |   |   |   |   |   AGEGRP < 4.5
|   |   |   |   |   |   |   |   ADMTYP < 4.5
|   |   |   |   |   |   |   |   |   AGEGRP < 2.5
|   |   |   |   |   |   |   |   |   |   EGEOLOC < 60
|   |   |   |   |   |   |   |   |   |   |   EGEOLOC < 57.5
|   |   |   |   |   |   |   |   |   |   |   |   EGEOLOC < 56.5 : opana (2/1)
|   |   |   |   |   |   |   |   |   |   |   |   EGEOLOC >= 56.5 : butrans (7/3)
|   |   |   |   |   |   |   |   |   |   |   EGEOLOC >= 57.5 : butrans (8/1)
|   |   |   |   |   |   |   |   |   |   EGEOLOC >= 60
|   |   |   |   |   |   |   |   |   |   |   EGEOLOC < 64.5
|   |   |   |   |   |   |   |   |   |   |   |   EGEOLOC < 63 : opana (40.14/12)
|   |   |   |   |   |   |   |   |   |   |   |   EGEOLOC >= 63 : opana (3/0)
|   |   |   |   |   |   |   |   |   |   |   EGEOLOC >= 64.5 : butrans (14/6)
|   |   |   |   |   |   |   |   |   AGEGRP >= 2.5
|   |   |   |   |   |   |   |   |   |   AGEGRP < 3.5
|   |   |   |   |   |   |   |   |   |   |   EGEOLOC < 57 : opana (6/0)
|   |   |   |   |   |   |   |   |   |   |   EGEOLOC >= 57
|   |   |   |   |   |   |   |   |   |   |   |   EGEOLOC < 64.5
|   |   |   |   |   |   |   |   |   |   |   |   |   EGEOLOC < 58.5 : opana (4/1)
|   |   |   |   |   |   |   |   |   |   |   |   |   EGEOLOC >= 58.5
|   |   |   |   |   |   |   |   |   |   |   |   |   |   EGEOLOC < 63
|   |   |   |   |   |   |   |   |   |   |   |   |   |   |   EGEOLOC < 60.5 : butrans (1/0)
|   |   |   |   |   |   |   |   |   |   |   |   |   |   |   EGEOLOC >= 60.5 : butrans (35/14)
|   |   |   |   |   |   |   |   |   |   |   |   |   |   EGEOLOC >= 63 : butrans (2/0)
|   |   |   |   |   |   |   |   |   |   |   |   EGEOLOC >= 64.5 : opana (12/3)
|   |   |   |   |   |   |   |   |   |   AGEGRP >= 3.5
|   |   |   |   |   |   |   |   |   |   |   EGEOLOC < 56.5 : opana (3.14/0)
|   |   |   |   |   |   |   |   |   |   |   EGEOLOC >= 56.5
|   |   |   |   |   |   |   |   |   |   |   |   EGEOLOC < 63
|   |   |   |   |   |   |   |   |   |   |   |   |   EGEOLOC < 60
|   |   |   |   |   |   |   |   |   |   |   |   |   |   EGEOLOC < 57.5 : opana (3/1)
|   |   |   |   |   |   |   |   |   |   |   |   |   |   EGEOLOC >= 57.5 : butrans (1/0)
|   |   |   |   |   |   |   |   |   |   |   |   |   EGEOLOC >= 60 : opana (35/13)
|   |   |   |   |   |   |   |   |   |   |   |   EGEOLOC >= 63
|   |   |   |   |   |   |   |   |   |   |   |   |   EGEOLOC < 64.5 : butrans (4/0)
|   |   |   |   |   |   |   |   |   |   |   |   |   EGEOLOC >= 64.5 : opana (14/7)
|   |   |   |   |   |   |   |   ADMTYP >= 4.5 : butrans (1/0)
|   |   |   |   |   |   |   AGEGRP >= 4.5
|   |   |   |   |   |   |   |   EGEOLOC < 57.5
|   |   |   |   |   |   |   |   |   EGEOLOC < 56.5 : opana (4/2)
|   |   |   |   |   |   |   |   |   EGEOLOC >= 56.5 : opana (3/0)
|   |   |   |   |   |   |   |   EGEOLOC >= 57.5
|   |   |   |   |   |   |   |   |   EGEOLOC < 59.5 : butrans (2/0)
|   |   |   |   |   |   |   |   |   EGEOLOC >= 59.5
|   |   |   |   |   |   |   |   |   |   EGEOLOC < 61.5 : opana (1/0)
|   |   |   |   |   |   |   |   |   |   EGEOLOC >= 61.5
|   |   |   |   |   |   |   |   |   |   |   EGEOLOC < 63 : opana (17.28/8)
|   |   |   |   |   |   |   |   |   |   |   EGEOLOC >= 63
|   |   |   |   |   |   |   |   |   |   |   |   EGEOLOC < 64.5 : opana (3/1)
|   |   |   |   |   |   |   |   |   |   |   |   EGEOLOC >= 64.5 : opana (8/3)
|   |   |   Category = outpatients
|   |   |   |   AGEGRP < 3.5
|   |   |   |   |   EGEOLOC < 14.5
|   |   |   |   |   |   REGION < 3
|   |   |   |   |   |   |   ADMTYP < 3 : butrans (8/0)
|   |   |   |   |   |   |   ADMTYP >= 3
|   |   |   |   |   |   |   |   EGEOLOC < 12.5 : butrans (2/0)
|   |   |   |   |   |   |   |   EGEOLOC >= 12.5
|   |   |   |   |   |   |   |   |   AGEGRP < 2.5 : butrans (2/0)
|   |   |   |   |   |   |   |   |   AGEGRP >= 2.5 : opana (1/0)
|   |   |   |   |   |   REGION >= 3 : butrans (10/0)
|   |   |   |   |   EGEOLOC >= 14.5
|   |   |   |   |   |   REGION < 3.5
|   |   |   |   |   |   |   ADMTYP < 1.5
|   |   |   |   |   |   |   |   AGEGRP < 2.5 : butrans (11/0)
|   |   |   |   |   |   |   |   AGEGRP >= 2.5
|   |   |   |   |   |   |   |   |   EGEOLOC < 48.5 : butrans (30/0)
|   |   |   |   |   |   |   |   |   EGEOLOC >= 48.5 : butrans (13/1)
|   |   |   |   |   |   |   ADMTYP >= 1.5 : butrans (60/0)
|   |   |   |   |   |   REGION >= 3.5 : butrans (37/0)
|   |   |   |   AGEGRP >= 3.5 : butrans (303/0)
|   |   refill_count >= 1.5
|   |   |   Category = inpatients
|   |   |   |   EGEOLOC < 45
|   |   |   |   |   AGEGRP < 4.5
|   |   |   |   |   |   AGEGRP < 2.5
|   |   |   |   |   |   |   REGION < 2.5
|   |   |   |   |   |   |   |   refill_count < 5.5
|   |   |   |   |   |   |   |   |   EGEOLOC < 7.5
|   |   |   |   |   |   |   |   |   |   REGION < 1.5
|   |   |   |   |   |   |   |   |   |   |   ADMTYP < 3 : opana (27/0)
|   |   |   |   |   |   |   |   |   |   |   ADMTYP >= 3
|   |   |   |   |   |   |   |   |   |   |   |   EGEOLOC < 4.5
|   |   |   |   |   |   |   |   |   |   |   |   |   refill_count < 2.5 : opana (5/0)
|   |   |   |   |   |   |   |   |   |   |   |   |   refill_count >= 2.5
|   |   |   |   |   |   |   |   |   |   |   |   |   |   refill_count < 3.5 : opana (5/1)
|   |   |   |   |   |   |   |   |   |   |   |   |   |   refill_count >= 3.5 : opana (3/0)
|   |   |   |   |   |   |   |   |   |   |   |   EGEOLOC >= 4.5
|   |   |   |   |   |   |   |   |   |   |   |   |   EGEOLOC < 5.5 : butrans (1/0)
|   |   |   |   |   |   |   |   |   |   |   |   |   EGEOLOC >= 5.5 : opana (2/0)
|   |   |   |   |   |   |   |   |   |   REGION >= 1.5 : butrans (1/0)
|   |   |   |   |   |   |   |   |   EGEOLOC >= 7.5
|   |   |   |   |   |   |   |   |   |   EGEOLOC < 9.5 : butrans (7/0)
|   |   |   |   |   |   |   |   |   |   EGEOLOC >= 9.5
|   |   |   |   |   |   |   |   |   |   |   EGEOLOC < 21
|   |   |   |   |   |   |   |   |   |   |   |   refill_count < 3.5
|   |   |   |   |   |   |   |   |   |   |   |   |   AGEGRP < 1.5
|   |   |   |   |   |   |   |   |   |   |   |   |   |   refill_count < 2.5
|   |   |   |   |   |   |   |   |   |   |   |   |   |   |   ADMTYP < 1.5 : opana (1/0)
|   |   |   |   |   |   |   |   |   |   |   |   |   |   |   ADMTYP >= 1.5
|   |   |   |   |   |   |   |   |   |   |   |   |   |   |   |   EGEOLOC < 14 : opana (2/0)
|   |   |   |   |   |   |   |   |   |   |   |   |   |   |   |   EGEOLOC >= 14 : butrans (4/0)
|   |   |   |   |   |   |   |   |   |   |   |   |   |   refill_count >= 2.5 : butrans (5/0)
|   |   |   |   |   |   |   |   |   |   |   |   |   AGEGRP >= 1.5
|   |   |   |   |   |   |   |   |   |   |   |   |   |   ADMTYP < 3
|   |   |   |   |   |   |   |   |   |   |   |   |   |   |   EGEOLOC < 14.5
|   |   |   |   |   |   |   |   |   |   |   |   |   |   |   |   refill_count < 2.5
|   |   |   |   |   |   |   |   |   |   |   |   |   |   |   |   |   EGEOLOC < 11.5 : opana (5/0)
|   |   |   |   |   |   |   |   |   |   |   |   |   |   |   |   |   EGEOLOC >= 11.5
|   |   |   |   |   |   |   |   |   |   |   |   |   |   |   |   |   |   EGEOLOC < 12.5
|   |   |   |   |   |   |   |   |   |   |   |   |   |   |   |   |   |   |   ADMTYP < 1.5 : butrans (7/3)
|   |   |   |   |   |   |   |   |   |   |   |   |   |   |   |   |   |   |   ADMTYP >= 1.5 : opana (17/3)
|   |   |   |   |   |   |   |   |   |   |   |   |   |   |   |   |   |   EGEOLOC >= 12.5
|   |   |   |   |   |   |   |   |   |   |   |   |   |   |   |   |   |   |   ADMTYP < 1.5 : opana (15/5)
|   |   |   |   |   |   |   |   |   |   |   |   |   |   |   |   |   |   |   ADMTYP >= 1.5 : opana (17/8)
|   |   |   |   |   |   |   |   |   |   |   |   |   |   |   |   refill_count >= 2.5
|   |   |   |   |   |   |   |   |   |   |   |   |   |   |   |   |   EGEOLOC < 12.5
|   |   |   |   |   |   |   |   |   |   |   |   |   |   |   |   |   |   ADMTYP < 1.5 : opana (7/0)
|   |   |   |   |   |   |   |   |   |   |   |   |   |   |   |   |   |   ADMTYP >= 1.5
|   |   |   |   |   |   |   |   |   |   |   |   |   |   |   |   |   |   |   EGEOLOC < 11.5 : butrans (1/0)
|   |   |   |   |   |   |   |   |   |   |   |   |   |   |   |   |   |   |   EGEOLOC >= 11.5 : opana (8/4)
|   |   |   |   |   |   |   |   |   |   |   |   |   |   |   |   |   EGEOLOC >= 12.5
|   |   |   |   |   |   |   |   |   |   |   |   |   |   |   |   |   |   ADMTYP < 1.5 : opana (10/1)
|   |   |   |   |   |   |   |   |   |   |   |   |   |   |   |   |   |   ADMTYP >= 1.5 : opana (24/2)
|   |   |   |   |   |   |   |   |   |   |   |   |   |   |   EGEOLOC >= 14.5
|   |   |   |   |   |   |   |   |   |   |   |   |   |   |   |   ADMTYP < 1.5
|   |   |   |   |   |   |   |   |   |   |   |   |   |   |   |   |   refill_count < 2.5
|   |   |   |   |   |   |   |   |   |   |   |   |   |   |   |   |   |   EGEOLOC < 19.5
|   |   |   |   |   |   |   |   |   |   |   |   |   |   |   |   |   |   |   EGEOLOC < 18.5
|   |   |   |   |   |   |   |   |   |   |   |   |   |   |   |   |   |   |   |   EGEOLOC < 17.5
|   |   |   |   |   |   |   |   |   |   |   |   |   |   |   |   |   |   |   |   |   EGEOLOC < 16.5 : opana (13/5)
|   |   |   |   |   |   |   |   |   |   |   |   |   |   |   |   |   |   |   |   |   EGEOLOC >= 16.5 : opana (7/3)
|   |   |   |   |   |   |   |   |   |   |   |   |   |   |   |   |   |   |   |   EGEOLOC >= 17.5 : butrans (7/2)
|   |   |   |   |   |   |   |   |   |   |   |   |   |   |   |   |   |   |   EGEOLOC >= 18.5 : opana (12/3)
|   |   |   |   |   |   |   |   |   |   |   |   |   |   |   |   |   |   EGEOLOC >= 19.5 : opana (5/0)
|   |   |   |   |   |   |   |   |   |   |   |   |   |   |   |   |   refill_count >= 2.5
|   |   |   |   |   |   |   |   |   |   |   |   |   |   |   |   |   |   EGEOLOC < 16.5 : opana (4/0)
|   |   |   |   |   |   |   |   |   |   |   |   |   |   |   |   |   |   EGEOLOC >= 16.5
|   |   |   |   |   |   |   |   |   |   |   |   |   |   |   |   |   |   |   EGEOLOC < 18.5
|   |   |   |   |   |   |   |   |   |   |   |   |   |   |   |   |   |   |   |   EGEOLOC < 17.5 : opana (6/3)
|   |   |   |   |   |   |   |   |   |   |   |   |   |   |   |   |   |   |   |   EGEOLOC >= 17.5 : opana (5/1)
|   |   |   |   |   |   |   |   |   |   |   |   |   |   |   |   |   |   |   EGEOLOC >= 18.5
|   |   |   |   |   |   |   |   |   |   |   |   |   |   |   |   |   |   |   |   EGEOLOC < 19.5 : butrans (12/4)
|   |   |   |   |   |   |   |   |   |   |   |   |   |   |   |   |   |   |   |   EGEOLOC >= 19.5 : opana (1/0)
|   |   |   |   |   |   |   |   |   |   |   |   |   |   |   |   ADMTYP >= 1.5
|   |   |   |   |   |   |   |   |   |   |   |   |   |   |   |   |   EGEOLOC < 16.5
|   |   |   |   |   |   |   |   |   |   |   |   |   |   |   |   |   |   refill_count < 2.5 : butrans (5/2)
|   |   |   |   |   |   |   |   |   |   |   |   |   |   |   |   |   |   refill_count >= 2.5 : butrans (21/3)
|   |   |   |   |   |   |   |   |   |   |   |   |   |   |   |   |   EGEOLOC >= 16.5
|   |   |   |   |   |   |   |   |   |   |   |   |   |   |   |   |   |   refill_count < 2.5
|   |   |   |   |   |   |   |   |   |   |   |   |   |   |   |   |   |   |   EGEOLOC < 18.5
|   |   |   |   |   |   |   |   |   |   |   |   |   |   |   |   |   |   |   |   EGEOLOC < 17.5 : opana (7/1)
|   |   |   |   |   |   |   |   |   |   |   |   |   |   |   |   |   |   |   |   EGEOLOC >= 17.5 : opana (9/1)
|   |   |   |   |   |   |   |   |   |   |   |   |   |   |   |   |   |   |   EGEOLOC >= 18.5
|   |   |   |   |   |   |   |   |   |   |   |   |   |   |   |   |   |   |   |   EGEOLOC < 19.5 : opana (15/7)
|   |   |   |   |   |   |   |   |   |   |   |   |   |   |   |   |   |   |   |   EGEOLOC >= 19.5 : opana (3/0)
|   |   |   |   |   |   |   |   |   |   |   |   |   |   |   |   |   |   refill_count >= 2.5
|   |   |   |   |   |   |   |   |   |   |   |   |   |   |   |   |   |   |   EGEOLOC < 18 : opana (23/6)
|   |   |   |   |   |   |   |   |   |   |   |   |   |   |   |   |   |   |   EGEOLOC >= 18 : butrans (10/2)
|   |   |   |   |   |   |   |   |   |   |   |   |   |   ADMTYP >= 3
|   |   |   |   |   |   |   |   |   |   |   |   |   |   |   REGION < 1.5
|   |   |   |   |   |   |   |   |   |   |   |   |   |   |   |   refill_count < 2.5
|   |   |   |   |   |   |   |   |   |   |   |   |   |   |   |   |   EGEOLOC < 11.5 : opana (8/0)
|   |   |   |   |   |   |   |   |   |   |   |   |   |   |   |   |   EGEOLOC >= 11.5
|   |   |   |   |   |   |   |   |   |   |   |   |   |   |   |   |   |   EGEOLOC < 12.5 : opana (8/4)
|   |   |   |   |   |   |   |   |   |   |   |   |   |   |   |   |   |   EGEOLOC >= 12.5 : opana (8/2)
|   |   |   |   |   |   |   |   |   |   |   |   |   |   |   |   refill_count >= 2.5
|   |   |   |   |   |   |   |   |   |   |   |   |   |   |   |   |   EGEOLOC < 11.5 : butrans (5/1)
|   |   |   |   |   |   |   |   |   |   |   |   |   |   |   |   |   EGEOLOC >= 11.5
|   |   |   |   |   |   |   |   |   |   |   |   |   |   |   |   |   |   EGEOLOC < 12.5 : opana (10/5)
|   |   |   |   |   |   |   |   |   |   |   |   |   |   |   |   |   |   EGEOLOC >= 12.5 : opana (10/4)
|   |   |   |   |   |   |   |   |   |   |   |   |   |   |   REGION >= 1.5
|   |   |   |   |   |   |   |   |   |   |   |   |   |   |   |   ADMTYP < 4.5
|   |   |   |   |   |   |   |   |   |   |   |   |   |   |   |   |   EGEOLOC < 18.5
|   |   |   |   |   |   |   |   |   |   |   |   |   |   |   |   |   |   refill_count < 2.5
|   |   |   |   |   |   |   |   |   |   |   |   |   |   |   |   |   |   |   EGEOLOC < 16.5 : opana (6/0)
|   |   |   |   |   |   |   |   |   |   |   |   |   |   |   |   |   |   |   EGEOLOC >= 16.5
|   |   |   |   |   |   |   |   |   |   |   |   |   |   |   |   |   |   |   |   EGEOLOC < 17.5 : opana (11/3)
|   |   |   |   |   |   |   |   |   |   |   |   |   |   |   |   |   |   |   |   EGEOLOC >= 17.5 : opana (2/1)
|   |   |   |   |   |   |   |   |   |   |   |   |   |   |   |   |   |   refill_count >= 2.5
|   |   |   |   |   |   |   |   |   |   |   |   |   |   |   |   |   |   |   EGEOLOC < 17.5
|   |   |   |   |   |   |   |   |   |   |   |   |   |   |   |   |   |   |   |   EGEOLOC < 16.5 : opana (7/1)
|   |   |   |   |   |   |   |   |   |   |   |   |   |   |   |   |   |   |   |   EGEOLOC >= 16.5 : opana (6/1)
|   |   |   |   |   |   |   |   |   |   |   |   |   |   |   |   |   |   |   EGEOLOC >= 17.5 : butrans (2/0)
|   |   |   |   |   |   |   |   |   |   |   |   |   |   |   |   |   EGEOLOC >= 18.5 : opana (18/0)
|   |   |   |   |   |   |   |   |   |   |   |   |   |   |   |   ADMTYP >= 4.5 : opana (1/0)
|   |   |   |   |   |   |   |   |   |   |   |   refill_count >= 3.5
|   |   |   |   |   |   |   |   |   |   |   |   |   EGEOLOC < 17.5
|   |   |   |   |   |   |   |   |   |   |   |   |   |   refill_count < 4.5
|   |   |   |   |   |   |   |   |   |   |   |   |   |   |   REGION < 1.5
|   |   |   |   |   |   |   |   |   |   |   |   |   |   |   |   EGEOLOC < 11.5 : opana (2/0)
|   |   |   |   |   |   |   |   |   |   |   |   |   |   |   |   EGEOLOC >= 11.5
|   |   |   |   |   |   |   |   |   |   |   |   |   |   |   |   |   ADMTYP < 3
|   |   |   |   |   |   |   |   |   |   |   |   |   |   |   |   |   |   ADMTYP < 1.5
|   |   |   |   |   |   |   |   |   |   |   |   |   |   |   |   |   |   |   EGEOLOC < 12.5 : opana (2/1)
|   |   |   |   |   |   |   |   |   |   |   |   |   |   |   |   |   |   |   EGEOLOC >= 12.5 : butrans (13/6)
|   |   |   |   |   |   |   |   |   |   |   |   |   |   |   |   |   |   ADMTYP >= 1.5
|   |   |   |   |   |   |   |   |   |   |   |   |   |   |   |   |   |   |   EGEOLOC < 12.5 : butrans (16/4)
